{"learner":{"attributes":{"best_iteration":"384","best_score":"1.4566155200137028"},"feature_names":[],"feature_types":[],"gradient_booster":{"model":{"gbtree_model_param":{"num_parallel_tree":"1","num_trees":"400"},"iteration_indptr":[0,1,2,3,4,5,6,7,8,9,10,11,12,13,14,15,16,17,18,19,20,21,22,23,24,25,26,27,28,29,30,31,32,33,34,35,36,37,38,39,40,41,42,43,44,45,46,47,48,49,50,51,52,53,54,55,56,57,58,59,60,61,62,63,64,65,66,67,68,69,70,71,72,73,74,75,76,77,78,79,80,81,82,83,84,85,86,87,88,89,90,91,92,93,94,95,96,97,98,99,100,101,102,103,104,105,106,107,108,109,110,111,112,113,114,115,116,117,118,119,120,121,122,123,124,125,126,127,128,129,130,131,132,133,134,135,136,137,138,139,140,141,142,143,144,145,146,147,148,149,150,151,152,153,154,155,156,157,158,159,160,161,162,163,164,165,166,167,168,169,170,171,172,173,174,175,176,177,178,179,180,181,182,183,184,185,186,187,188,189,190,191,192,193,194,195,196,197,198,199,200,201,202,203,204,205,206,207,208,209,210,211,212,213,214,215,216,217,218,219,220,221,222,223,224,225,226,227,228,229,230,231,232,233,234,235,236,237,238,239,240,241,242,243,244,245,246,247,248,249,250,251,252,253,254,255,256,257,258,259,260,261,262,263,264,265,266,267,268,269,270,271,272,273,274,275,276,277,278,279,280,281,282,283,284,285,286,287,288,289,290,291,292,293,294,295,296,297,298,299,300,301,302,303,304,305,306,307,308,309,310,311,312,313,314,315,316,317,318,319,320,321,322,323,324,325,326,327,328,329,330,331,332,333,334,335,336,337,338,339,340,341,342,343,344,345,346,347,348,349,350,351,352,353,354,355,356,357,358,359,360,361,362,363,364,365,366,367,368,369,370,371,372,373,374,375,376,377,378,379,380,381,382,383,384,385,386,387,388,389,390,391,392,393,394,395,396,397,398,399,400],"tree_info":[0,0,0,0,0,0,0,0,0,0,0,0,0,0,0,0,0,0,0,0,0,0,0,0,0,0,0,0,0,0,0,0,0,0,0,0,0,0,0,0,0,0,0,0,0,0,0,0,0,0,0,0,0,0,0,0,0,0,0,0,0,0,0,0,0,0,0,0,0,0,0,0,0,0,0,0,0,0,0,0,0,0,0,0,0,0,0,0,0,0,0,0,0,0,0,0,0,0,0,0,0,0,0,0,0,0,0,0,0,0,0,0,0,0,0,0,0,0,0,0,0,0,0,0,0,0,0,0,0,0,0,0,0,0,0,0,0,0,0,0,0,0,0,0,0,0,0,0,0,0,0,0,0,0,0,0,0,0,0,0,0,0,0,0,0,0,0,0,0,0,0,0,0,0,0,0,0,0,0,0,0,0,0,0,0,0,0,0,0,0,0,0,0,0,0,0,0,0,0,0,0,0,0,0,0,0,0,0,0,0,0,0,0,0,0,0,0,0,0,0,0,0,0,0,0,0,0,0,0,0,0,0,0,0,0,0,0,0,0,0,0,0,0,0,0,0,0,0,0,0,0,0,0,0,0,0,0,0,0,0,0,0,0,0,0,0,0,0,0,0,0,0,0,0,0,0,0,0,0,0,0,0,0,0,0,0,0,0,0,0,0,0,0,0,0,0,0,0,0,0,0,0,0,0,0,0,0,0,0,0,0,0,0,0,0,0,0,0,0,0,0,0,0,0,0,0,0,0,0,0,0,0,0,0,0,0,0,0,0,0,0,0,0,0,0,0,0,0,0,0,0,0,0,0,0,0,0,0,0,0,0,0,0,0,0,0,0,0,0,0,0,0,0,0,0,0,0,0,0,0,0,0,0,0,0,0,0,0,0,0,0,0,0,0,0,0,0,0,0,0],"trees":[{"base_weights":[4.033674E-3,1.503213E0,-7.479399E0,-6.758739E-1,2.9893913E0,-1.0537136E1,-2.9261434E0,-4.544065E0,2.182669E-3,8.7561E-1,3.9406514E0,-1.7839312E1,-9.682342E0,-7.200776E-1,-6.205406E0,-5.7529855E0,-2.1346204E0,-1.9705455E0,1.1416607E0,4.4256565E-1,2.580302E0,3.4485793E0,5.861993E0,-5.8613396E-1,-4.765293E-1,-7.973055E0,-1.224674E1,1.5466029E-2,-2.8946378E0,-5.299613E0,-8.617884E0,-2.0693412E-1,-1.472181E-1,-1.044976E-1,-3.1107409E-2,-8.658727E-2,-3.2124195E-2,1.8679924E-2,8.4512435E-2,-8.546933E-3,4.1898217E-2,6.35826E-2,1.3559547E-1,7.5269625E-2,1.2199108E-1,1.6369784E-1,2.3205446E-1,-2.7694532E-1,-1.8873653E-1,-3.915007E-1,-3.355509E-1,4.6284564E-2,-2.2530094E-2,-1.1980368E-1,-5.431823E-2,-1.8329893E-1,-1.3429081E-1,-2.831018E-1,-2.2661632E-1],"categories":[],"categories_nodes":[],"categories_segments":[],"categories_sizes":[],"default_left":[0,0,0,0,0,0,0,0,0,0,0,0,0,0,0,0,0,0,0,0,0,0,0,0,0,0,0,0,0,0,0,0,0,0,0,0,0,0,0,0,0,0,0,0,0,0,0,0,0,0,0,0,0,0,0,0,0,0,0],"id":0,"left_children":[1,3,5,7,9,11,13,15,17,19,21,23,25,27,29,31,33,35,37,39,41,43,45,-1,-1,47,49,51,53,55,57,-1,-1,-1,-1,-1,-1,-1,-1,-1,-1,-1,-1,-1,-1,-1,-1,-1,-1,-1,-1,-1,-1,-1,-1,-1,-1,-1,-1],"loss_changes":[4.7700316E5,1.1472877E5,9.869309E4,3.7688293E4,4.232717E4,2.6062469E4,2.0616893E4,6.193961E3,2.7477855E4,4.816523E3,1.3662234E4,7.407031E2,1.6418094E4,2.742245E3,2.3733398E3,1.2765547E3,1.0451064E3,3.6688477E3,6.725089E3,3.6262751E3,1.1435566E3,6.67475E3,2.1214766E3,0E0,0E0,4.6819844E3,9.2915625E2,1.5008075E3,4.8389575E2,4.7392383E2,7.5677734E1,0E0,0E0,0E0,0E0,0E0,0E0,0E0,0E0,0E0,0E0,0E0,0E0,0E0,0E0,0E0,0E0,0E0,0E0,0E0,0E0,0E0,0E0,0E0,0E0,0E0,0E0,0E0,0E0],"parents":[2147483647,0,0,1,1,2,2,3,3,4,4,5,5,6,6,7,7,8,8,9,9,10,10,11,11,12,12,13,13,14,14,15,15,16,16,17,17,18,18,19,19,20,20,21,21,22,22,25,25,26,26,27,27,28,28,29,29,30,30],"right_children":[2,4,6,8,10,12,14,16,18,20,22,24,26,28,30,32,34,36,38,40,42,44,46,-1,-1,48,50,52,54,56,58,-1,-1,-1,-1,-1,-1,-1,-1,-1,-1,-1,-1,-1,-1,-1,-1,-1,-1,-1,-1,-1,-1,-1,-1,-1,-1,-1,-1],"split_conditions":[3.4E-1,-3.0782756E-1,3.123177E-1,2.5264558E-1,2.1371158E-2,-1.1605272E0,1.805E-1,-3.5884333E-1,2.258606E-2,1.3200537E0,1.3200537E0,3.4957594E-1,1.805E-1,1.7674373E-1,1.7674373E-1,2.3761114E-2,2.4263404E-2,1.8597176E-2,7.123308E-1,1.8495543E-2,8.9085984E-1,2.8478824E-2,8.9085984E-1,-5.8613396E-1,-4.765293E-1,-4.6286386E-1,-4.6286386E-1,6.861538E-1,1.1592464E-2,1.04608545E-2,1.04608545E-2,-2.0693412E-1,-1.472181E-1,-1.044976E-1,-3.1107409E-2,-8.658727E-2,-3.2124195E-2,1.8679924E-2,8.4512435E-2,-8.546933E-3,4.1898217E-2,6.35826E-2,1.3559547E-1,7.5269625E-2,1.2199108E-1,1.6369784E-1,2.3205446E-1,-2.7694532E-1,-1.8873653E-1,-3.915007E-1,-3.355509E-1,4.6284564E-2,-2.2530094E-2,-1.1980368E-1,-5.431823E-2,-1.8329893E-1,-1.3429081E-1,-2.831018E-1,-2.2661632E-1],"split_indices":[607,1,1,3,664,1,17,0,664,1,1,378,17,0,0,664,664,664,0,664,0,664,0,0,0,1,1,362,724,724,724,0,0,0,0,0,0,0,0,0,0,0,0,0,0,0,0,0,0,0,0,0,0,0,0,0,0,0,0],"split_type":[0,0,0,0,0,0,0,0,0,0,0,0,0,0,0,0,0,0,0,0,0,0,0,0,0,0,0,0,0,0,0,0,0,0,0,0,0,0,0,0,0,0,0,0,0,0,0,0,0,0,0,0,0,0,0,0,0,0,0],"sum_hessian":[4.2515E4,3.5421E4,7.094E3,1.4362E4,2.1059E4,4.242E3,2.852E3,2.141E3,1.2221E4,6.538E3,1.4521E4,4.4E2,3.802E3,1.707E3,1.145E3,1.423E3,7.18E2,4.473E3,7.748E3,5.217E3,1.321E3,1.1566E4,2.955E3,2.25E2,2.15E2,2.287E3,1.515E3,1.276E3,4.31E2,8.38E2,3.07E2,5.97E2,8.26E2,3.19E2,3.99E2,2.213E3,2.26E3,5.919E3,1.829E3,2.959E3,2.258E3,1.072E3,2.49E2,4.594E3,6.972E3,2.437E3,5.18E2,1.302E3,9.85E2,8.48E2,6.67E2,4.27E2,8.49E2,2.1E2,2.21E2,4.14E2,4.24E2,1.63E2,1.44E2],"tree_param":{"num_deleted":"0","num_feature":"924","num_nodes":"59","size_leaf_vector":"1"}},{"base_weights":[-5.220419E-3,-7.2152686E0,1.430838E0,-9.671847E0,-3.988063E0,-2.1150807E-1,2.5958817E0,-7.898245E0,-1.2386126E1,-2.1162574E0,-6.8613877E0,-7.4317603E0,-5.5115744E-2,-5.5253744E0,2.7819064E0,-1.152234E1,-6.7298946E0,-1.6011576E1,-1.1149058E1,-3.4374633E0,-4.4304022E-1,-7.966539E0,-5.244671E0,-7.4447885E0,-3.93013E-3,8.946345E-1,-9.958038E-1,-6.145652E0,-5.070829E0,2.16567E0,3.4947793E0,-5.067777E-1,-3.173809E-1,-1.9498E-1,-3.6274734E-1,-6.422986E-1,-4.4557992E-1,-3.2875603E-1,-4.5671788E-1,-6.760693E-2,-1.2115143E-1,2.8563032E-2,-3.3429056E-2,-2.1659283E-1,-2.5810844E-1,-1.3279496E-1,-1.7997202E-1,-4.0396927E-3,-2.2373597E-1,1.0742482E-2,4.7038805E-2,-4.2973142E-2,-1.3054334E-2,-1.8514974E-1,-0E0,-2.2195154E-3,-1.5285833E-1,8.0720596E-2,1.9111527E-2,7.773597E-2,1.1822189E-1],"categories":[],"categories_nodes":[],"categories_segments":[],"categories_sizes":[],"default_left":[0,0,0,0,0,0,0,0,0,0,0,0,0,0,0,0,0,0,0,0,0,0,0,0,0,0,0,0,0,0,0,0,0,0,0,0,0,0,0,0,0,0,0,0,0,0,0,0,0,0,0,0,0,0,0,0,0,0,0,0,0],"id":1,"left_children":[1,3,5,7,9,11,13,15,17,19,21,23,25,27,29,31,33,35,37,39,41,43,45,47,-1,49,51,53,55,57,59,-1,-1,-1,-1,-1,-1,-1,-1,-1,-1,-1,-1,-1,-1,-1,-1,-1,-1,-1,-1,-1,-1,-1,-1,-1,-1,-1,-1,-1,-1],"loss_changes":[4.394846E5,5.57735E4,6.7731305E4,1.9004531E4,1.6353238E4,1.656342E4,3.1305703E4,1.0062359E4,6.6342188E3,4.077252E3,2.0244375E3,4.9023438E0,1.2849446E4,3.4845703E1,8.861484E3,2.5378047E3,2.0616562E3,1.7326953E3,5.0621875E2,6.978262E2,7.705426E2,1.6560938E2,2.2114062E2,4.8496094E0,0E0,2.5780146E3,1.7623428E3,2.0850098E1,1.8189941E1,8.707105E3,3.7400703E3,0E0,0E0,0E0,0E0,0E0,0E0,0E0,0E0,0E0,0E0,0E0,0E0,0E0,0E0,0E0,0E0,0E0,0E0,0E0,0E0,0E0,0E0,0E0,0E0,0E0,0E0,0E0,0E0,0E0,0E0],"parents":[2147483647,0,0,1,1,2,2,3,3,4,4,5,5,6,6,7,7,8,8,9,9,10,10,11,11,12,12,13,13,14,14,15,15,16,16,17,17,18,18,19,19,20,20,21,21,22,22,23,23,25,25,26,26,27,27,28,28,29,29,30,30],"right_children":[2,4,6,8,10,12,14,16,18,20,22,24,26,28,30,32,34,36,38,40,42,44,46,48,-1,50,52,54,56,58,60,-1,-1,-1,-1,-1,-1,-1,-1,-1,-1,-1,-1,-1,-1,-1,-1,-1,-1,-1,-1,-1,-1,-1,-1,-1,-1,-1,-1,-1,-1],"split_conditions":[2.8E-1,3.1870362E-1,2.3085648E-2,7.757937E-1,7.757937E-1,-1.392916E0,-1.392916E0,-1.0819728E0,-1.0819728E0,8.892435E-1,1.0318785E0,5.0658226E-1,9.505E1,3.1677693E-2,1.7606865E-1,-1.392916E0,1.7606865E-1,-1.392916E0,1.7606865E-1,4.3310428E-1,7.548645E-2,5.8111113E-1,5.8111113E-1,1.5952381E-1,-3.93013E-3,3.1870362E-1,3.1870362E-1,1.6360237E-1,4.4444445E-1,-2.5183624E-1,2.9718328E-2,-5.067777E-1,-3.173809E-1,-1.9498E-1,-3.6274734E-1,-6.422986E-1,-4.4557992E-1,-3.2875603E-1,-4.5671788E-1,-6.760693E-2,-1.2115143E-1,2.8563032E-2,-3.3429056E-2,-2.1659283E-1,-2.5810844E-1,-1.3279496E-1,-1.7997202E-1,-4.0396927E-3,-2.2373597E-1,1.0742482E-2,4.7038805E-2,-4.2973142E-2,-1.3054334E-2,-1.8514974E-1,-0E0,-2.2195154E-3,-1.5285833E-1,8.0720596E-2,1.9111527E-2,7.773597E-2,1.1822189E-1],"split_indices":[159,2,694,720,720,2,2,2,2,2,2,777,923,694,2,2,2,2,2,359,359,7,7,14,0,2,2,732,396,2,694,0,0,0,0,0,0,0,0,0,0,0,0,0,0,0,0,0,0,0,0,0,0,0,0,0,0,0,0,0,0],"split_type":[0,0,0,0,0,0,0,0,0,0,0,0,0,0,0,0,0,0,0,0,0,0,0,0,0,0,0,0,0,0,0,0,0,0,0,0,0,0,0,0,0,0,0,0,0,0,0,0,0,0,0,0,0,0,0,0,0,0,0,0,0],"sum_hessian":[4.244E4,7.048E3,3.5392E4,3.999E3,3.049E3,1.4687E4,2.0705E4,2.424E3,1.575E3,1.849E3,1.2E3,3.09E2,1.4378E4,4.62E2,2.0243E4,5.86E2,1.838E3,3.94E2,1.181E3,1.031E3,8.18E2,7.07E2,4.93E2,3.08E2,1E0,7.153E3,7.225E3,1.82E2,2.8E2,1.0864E4,9.379E3,8.2E1,5.04E2,1.767E3,7.1E1,6.3E1,3.31E2,1.136E3,4.5E1,3.52E2,6.79E2,2.64E2,5.54E2,3.39E2,3.68E2,2.45E2,2.48E2,1E0,3.07E2,3.985E3,3.168E3,4.057E3,3.168E3,1.81E2,1E0,2E0,2.78E2,8.084E3,2.78E3,3.106E3,6.273E3],"tree_param":{"num_deleted":"0","num_feature":"924","num_nodes":"61","size_leaf_vector":"1"}},{"base_weights":[-9.617391E-3,-7.0316143E0,1.4131219E0,-9.921809E0,-2.638941E0,-6.928888E-1,2.8420765E0,-1.6851871E1,-9.136778E0,-6.3155985E-1,-5.7379284E0,-2.3359494E0,4.181881E-1,8.615206E-1,3.725571E0,-5.5070156E-1,-1.5074519E1,-7.523752E0,-1.1558206E1,3.7752844E-2,-2.6764827E0,-4.9165816E0,-8.076685E0,-7.213872E0,-2.0787063E0,-5.4146986E0,7.4700874E-1,4.3588224E-1,2.517785E0,3.2467704E0,5.6113243E0,-4.5360744E-1,-2.4255972E-2,-2.6264945E-1,-1.776925E-1,-3.708262E-1,-3.148565E-1,-1.9392667E-2,4.305539E-2,-1.114315E-1,-4.842978E-2,-1.2348301E-1,-1.7246817E-1,-2.0897704E-1,-2.660819E-1,-1.9904994E-3,-2.168373E-1,-7.694337E-2,-7.102521E-3,-1.7139627E-1,-1.3625167E-1,6.707489E-3,8.1183895E-2,-7.5599044E-3,4.015277E-2,6.096136E-2,1.385883E-1,7.149695E-2,1.15504034E-1,1.5678933E-1,2.231027E-1],"categories":[],"categories_nodes":[],"categories_segments":[],"categories_sizes":[],"default_left":[0,0,0,0,0,0,0,0,0,0,0,0,0,0,0,0,0,0,0,0,0,0,0,0,0,0,0,0,0,0,0,0,0,0,0,0,0,0,0,0,0,0,0,0,0,0,0,0,0,0,0,0,0,0,0,0,0,0,0,0,0],"id":2,"left_children":[1,3,5,7,9,11,13,15,17,19,21,23,25,27,29,-1,31,33,35,37,39,41,43,45,47,49,51,53,55,57,59,-1,-1,-1,-1,-1,-1,-1,-1,-1,-1,-1,-1,-1,-1,-1,-1,-1,-1,-1,-1,-1,-1,-1,-1,-1,-1,-1,-1,-1,-1],"loss_changes":[4.2404225E5,9.069678E4,1.0621792E5,2.3072719E4,1.7647074E4,2.6053068E4,3.677308E4,5.1241406E2,1.4915625E4,2.3718508E3,2.0253594E3,7.16609E3,1.6319875E4,4.5641973E3,1.306425E4,0E0,6.607031E1,4.452078E3,9.910625E2,1.2490441E3,4.4275195E2,4.7742773E2,8.0759766E1,5.955078E0,4.8895977E3,3.5648438E1,8.255163E3,3.211818E3,1.3140156E3,6.0073984E3,1.9505625E3,0E0,0E0,0E0,0E0,0E0,0E0,0E0,0E0,0E0,0E0,0E0,0E0,0E0,0E0,0E0,0E0,0E0,0E0,0E0,0E0,0E0,0E0,0E0,0E0,0E0,0E0,0E0,0E0,0E0,0E0],"parents":[2147483647,0,0,1,1,2,2,3,3,4,4,5,5,6,6,7,7,8,8,9,9,10,10,11,11,12,12,13,13,14,14,16,16,17,17,18,18,19,19,20,20,21,21,22,22,23,23,24,24,25,25,26,26,27,27,28,28,29,29,30,30],"right_children":[2,4,6,8,10,12,14,16,18,20,22,24,26,28,30,-1,32,34,36,38,40,42,44,46,48,50,52,54,56,58,60,-1,-1,-1,-1,-1,-1,-1,-1,-1,-1,-1,-1,-1,-1,-1,-1,-1,-1,-1,-1,-1,-1,-1,-1,-1,-1,-1,-1,-1,-1],"split_conditions":[2.8E-1,3.123177E-1,-3.0782756E-1,-1.1605272E0,8.205E-1,2.6319943E-2,2.1371158E-2,9.0766154E-2,2.555E-1,1.7674373E-1,1.7674373E-1,-1.7806726E0,-1.7806726E0,1.3200537E0,1.3200537E0,-5.5070156E-1,3.7923077E-1,-4.6286386E-1,-4.6286386E-1,3.3549297E-1,3.3435753E-1,3.3565176E-1,3.3565176E-1,8.049536E-1,7.123308E-1,2.7568405E2,7.123308E-1,1.8495543E-2,8.9085984E-1,2.917194E-2,8.9085984E-1,-4.5360744E-1,-2.4255972E-2,-2.6264945E-1,-1.776925E-1,-3.708262E-1,-3.148565E-1,-1.9392667E-2,4.305539E-2,-1.114315E-1,-4.842978E-2,-1.2348301E-1,-1.7246817E-1,-2.0897704E-1,-2.660819E-1,-1.9904994E-3,-2.168373E-1,-7.694337E-2,-7.102521E-3,-1.7139627E-1,-1.3625167E-1,6.707489E-3,8.1183895E-2,-7.5599044E-3,4.015277E-2,6.096136E-2,1.385883E-1,7.149695E-2,1.15504034E-1,1.5678933E-1,2.231027E-1],"split_indices":[159,1,1,1,5,784,664,753,16,0,0,1,1,1,1,0,750,1,1,370,370,370,370,387,0,711,0,664,0,664,0,0,0,0,0,0,0,0,0,0,0,0,0,0,0,0,0,0,0,0,0,0,0,0,0,0,0,0,0,0,0],"split_type":[0,0,0,0,0,0,0,0,0,0,0,0,0,0,0,0,0,0,0,0,0,0,0,0,0,0,0,0,0,0,0,0,0,0,0,0,0,0,0,0,0,0,0,0,0,0,0,0,0,0,0,0,0,0,0,0,0,0,0,0,0],"sum_hessian":[4.2439E4,7.149E3,3.529E4,4.31E3,2.839E3,1.4265E4,2.1025E4,4.34E2,3.876E3,1.725E3,1.114E3,5.755E3,8.51E3,6.488E3,1.4537E4,2.24E2,2.1E2,2.332E3,1.544E3,1.3E3,4.25E2,8.3E2,2.84E2,2.85E2,5.47E3,4.52E2,8.058E3,5.165E3,1.323E3,1.1599E4,2.938E3,2.09E2,1E0,1.312E3,1.02E3,8.66E2,6.78E2,8.72E2,4.28E2,2.11E2,2.14E2,4.31E2,3.99E2,1.28E2,1.56E2,1E0,2.84E2,4.326E3,1.144E3,3.26E2,1.26E2,6.362E3,1.696E3,2.93E3,2.235E3,1.079E3,2.44E2,4.777E3,6.822E3,2.434E3,5.04E2],"tree_param":{"num_deleted":"0","num_feature":"924","num_nodes":"61","size_leaf_vector":"1"}},{"base_weights":[9.0855025E-3,-6.801365E0,1.3686453E0,-9.135657E0,-3.7776706E0,-5.66445E-1,2.2304592E0,-7.4974055E0,-1.1601304E1,-2.0198762E0,-6.4736233E0,-7.1580787E0,-4.2422324E-1,-5.449104E0,2.3994403E0,-1.0790808E1,-6.368174E0,-1.4912525E1,-1.0455032E1,-9.4670737E-1,-4.874169E0,-5.434275E0,-2.7631932E-1,-0E0,-7.1765203E0,-1.0442961E0,4.366084E-1,-4.7213016E0,-5.861906E0,1.5341654E0,3.067968E0,-4.815353E-1,-2.9652044E-1,-1.8414684E-1,-3.4528613E-1,-6.0360754E-1,-4.1842416E-1,-3.0836013E-1,-4.3221584E-1,-1.8787028E-1,-2.3318897E-3,-1.8741514E-1,-1.238892E-1,-2.800621E-1,-1.4579585E-1,-2.6955223E-3,-2.1580969E-1,-4.506614E-2,1.9552992E-3,-9.3097024E-4,4.73583E-2,-1.4262816E-1,-0E0,-1.7654896E-1,-9.394401E-3,2.7523855E-2,6.838483E-2,7.369767E-2,1.14488296E-1],"categories":[],"categories_nodes":[],"categories_segments":[],"categories_sizes":[],"default_left":[0,0,0,0,0,0,0,0,0,0,0,0,0,0,0,0,0,0,0,0,0,0,0,0,0,0,0,0,0,0,0,0,0,0,0,0,0,0,0,0,0,0,0,0,0,0,0,0,0,0,0,0,0,0,0,0,0,0,0],"id":3,"left_children":[1,3,5,7,9,11,13,15,17,19,21,23,25,27,29,31,33,35,37,39,41,43,-1,-1,45,47,49,51,53,55,57,-1,-1,-1,-1,-1,-1,-1,-1,-1,-1,-1,-1,-1,-1,-1,-1,-1,-1,-1,-1,-1,-1,-1,-1,-1,-1,-1,-1],"loss_changes":[3.9350044E5,4.980772E4,5.9090367E4,1.5881719E4,1.4567969E4,1.020558E4,3.1827531E4,8.747875E3,5.639422E3,5.70444E3,3.3151367E3,9.299805E0,5.708292E3,7.15293E1,1.38523125E4,2.514625E3,1.927875E3,1.3619141E3,4.571172E2,6.275934E3,4.3861426E2,1.8543203E3,0E0,0E0,4.6660156E0,3.1624663E3,2.3945986E3,1.8526367E1,1.943164E1,4.7945957E3,6.1514844E3,0E0,0E0,0E0,0E0,0E0,0E0,0E0,0E0,0E0,0E0,0E0,0E0,0E0,0E0,0E0,0E0,0E0,0E0,0E0,0E0,0E0,0E0,0E0,0E0,0E0,0E0,0E0,0E0],"parents":[2147483647,0,0,1,1,2,2,3,3,4,4,5,5,6,6,7,7,8,8,9,9,10,10,11,11,12,12,13,13,14,14,15,15,16,16,17,17,18,18,19,19,20,20,21,21,24,24,25,25,26,26,27,27,28,28,29,29,30,30],"right_children":[2,4,6,8,10,12,14,16,18,20,22,24,26,28,30,32,34,36,38,40,42,44,-1,-1,46,48,50,52,54,56,58,-1,-1,-1,-1,-1,-1,-1,-1,-1,-1,-1,-1,-1,-1,-1,-1,-1,-1,-1,-1,-1,-1,-1,-1,-1,-1,-1,-1],"split_conditions":[2.3051637E4,3.1870362E-1,2.0921148E-2,2.555E-1,2.555E-1,-1.392916E0,-1.392916E0,-1.0819728E0,-1.0819728E0,6.230663E-1,6.230663E-1,8.25E-2,1.8597176E-2,-1.1876416E-1,3.040066E-2,-3.5884333E-1,1.962034E0,-3.5884333E-1,1.962034E0,-1.7870755E0,7.123308E-1,-1.7870755E0,-2.7631932E-1,-0E0,-9.2650706E-1,7.123308E-1,7.123308E-1,1.3795097E-1,2.6844627E-1,8.747922E-2,8.747922E-2,-4.815353E-1,-2.9652044E-1,-1.8414684E-1,-3.4528613E-1,-6.0360754E-1,-4.1842416E-1,-3.0836013E-1,-4.3221584E-1,-1.8787028E-1,-2.3318897E-3,-1.8741514E-1,-1.238892E-1,-2.800621E-1,-1.4579585E-1,-2.6955223E-3,-2.1580969E-1,-4.506614E-2,1.9552992E-3,-9.3097024E-4,4.73583E-2,-1.4262816E-1,-0E0,-1.7654896E-1,-9.394401E-3,2.7523855E-2,6.838483E-2,7.369767E-2,1.14488296E-1],"split_indices":[362,2,694,16,16,2,2,2,2,0,0,120,664,768,664,0,0,0,0,0,0,0,0,0,459,0,0,87,829,0,0,0,0,0,0,0,0,0,0,0,0,0,0,0,0,0,0,0,0,0,0,0,0,0,0,0,0,0,0],"split_type":[0,0,0,0,0,0,0,0,0,0,0,0,0,0,0,0,0,0,0,0,0,0,0,0,0,0,0,0,0,0,0,0,0,0,0,0,0,0,0,0,0,0,0,0,0,0,0,0,0,0,0,0,0,0,0,0,0,0,0],"sum_hessian":[4.2496E4,7.07E3,3.5426E4,3.987E3,3.083E3,1.0915E4,2.4511E4,2.401E3,1.586E3,1.869E3,1.214E3,2.28E2,1.0687E4,5.26E2,2.3985E4,6.08E2,1.793E3,4.01E2,1.185E3,1.361E3,5.08E2,8.85E2,3.29E2,1E0,2.27E2,6.214E3,4.473E3,2.02E2,3.24E2,1.0459E4,1.3526E4,8.4E1,5.24E2,1.721E3,7.2E1,5.6E1,3.45E2,1.142E3,4.3E1,1.89E2,1.172E3,1.72E2,3.36E2,1.09E2,7.76E2,1E0,2.26E2,4.4E3,1.814E3,3.173E3,1.3E3,2E2,2E0,3.22E2,2E0,5.728E3,4.731E3,7.451E3,6.075E3],"tree_param":{"num_deleted":"0","num_feature":"924","num_nodes":"59","size_leaf_vector":"1"}},{"base_weights":[1.4318835E-2,-6.5578904E0,1.321971E0,-9.337754E0,-2.4897802E0,-7.2577655E-1,2.7094924E0,-1.5933871E1,-8.561136E0,-5.283851E-1,-5.387795E0,-4.2939887E0,-9.004869E-2,1.0996368E0,3.7003524E0,-4.3658707E-1,-5.314531E-1,-7.040905E0,-1.0863136E1,9.428654E-2,-2.4362288E0,-4.61841E0,-7.5044737E0,-5.2766767E0,-2.172701E0,-1.6390836E0,1.0591037E0,6.702977E-1,2.765828E0,2.6436148E0,4.593852E0,-2.4764739E-1,-1.6627668E-1,-3.4851137E-1,-2.96314E-1,4.327733E-2,-1.8174151E-2,-4.21023E-2,-1.03832066E-1,-1.6095996E-1,-1.15970775E-1,-2.49542E-1,-1.9669029E-1,-1.3419245E-1,-1.8745966E-1,-1.0400753E-1,-3.5232954E-2,-7.9526395E-2,-2.434015E-2,1.7443173E-2,7.7748634E-2,4.6543676E-2,-2.6191187E-3,6.870688E-2,1.4106536E-1,5.6355104E-2,9.191928E-2,1.23838805E-1,1.761342E-1],"categories":[],"categories_nodes":[],"categories_segments":[],"categories_sizes":[],"default_left":[0,0,0,0,0,0,0,0,0,0,0,0,0,0,0,0,0,0,0,0,0,0,0,0,0,0,0,0,0,0,0,0,0,0,0,0,0,0,0,0,0,0,0,0,0,0,0,0,0,0,0,0,0,0,0,0,0,0,0],"id":4,"left_children":[1,3,5,7,9,11,13,15,17,19,21,23,25,27,29,-1,-1,31,33,35,37,39,41,43,45,47,49,51,53,55,57,-1,-1,-1,-1,-1,-1,-1,-1,-1,-1,-1,-1,-1,-1,-1,-1,-1,-1,-1,-1,-1,-1,-1,-1,-1,-1,-1,-1],"loss_changes":[3.665083E5,7.9950375E4,1.0107755E5,2.1184219E4,1.6324178E4,3.2578613E4,3.3802438E4,4.6990625E2,1.29691875E4,2.048401E3,1.7834219E3,4.4823945E3,2.1718594E4,5.768247E3,1.2345594E4,0E0,0E0,4.0035312E3,8.158594E2,1.227588E3,4.2448486E2,4.1264844E2,8.158008E1,1.0694883E3,8.7198047E2,4.3378506E3,5.1138687E3,4.297787E3,1.4806963E3,1.9095117E3,4.1507344E3,0E0,0E0,0E0,0E0,0E0,0E0,0E0,0E0,0E0,0E0,0E0,0E0,0E0,0E0,0E0,0E0,0E0,0E0,0E0,0E0,0E0,0E0,0E0,0E0,0E0,0E0,0E0,0E0],"parents":[2147483647,0,0,1,1,2,2,3,3,4,4,5,5,6,6,7,7,8,8,9,9,10,10,11,11,12,12,13,13,14,14,17,17,18,18,19,19,20,20,21,21,22,22,23,23,24,24,25,25,26,26,27,27,28,28,29,29,30,30],"right_children":[2,4,6,8,10,12,14,16,18,20,22,24,26,28,30,-1,-1,32,34,36,38,40,42,44,46,48,50,52,54,56,58,-1,-1,-1,-1,-1,-1,-1,-1,-1,-1,-1,-1,-1,-1,-1,-1,-1,-1,-1,-1,-1,-1,-1,-1,-1,-1,-1,-1],"split_conditions":[1.4605495E-1,3.123177E-1,-3.0782756E-1,-1.1605272E0,7.952381E-1,2.5264558E-1,2.239756E-2,7.952381E-1,2.555E-1,1.7674373E-1,1.7674373E-1,-3.5884333E-1,2.6917743E-2,1.3200537E0,7.7742666E-1,-4.3658707E-1,-5.314531E-1,-4.6286386E-1,-4.6286386E-1,3.2968697E-1,3.0154693E0,2.8094494E0,2.8094494E0,9.044E1,2.3085648E-2,1.8792037E-2,7.123308E-1,9.505E1,8.9085984E-1,2.9579619E-2,1.3975719E0,-2.4764739E-1,-1.6627668E-1,-3.4851137E-1,-2.96314E-1,4.327733E-2,-1.8174151E-2,-4.21023E-2,-1.03832066E-1,-1.6095996E-1,-1.15970775E-1,-2.49542E-1,-1.9669029E-1,-1.3419245E-1,-1.8745966E-1,-1.0400753E-1,-3.5232954E-2,-7.9526395E-2,-2.434015E-2,1.7443173E-2,7.7748634E-2,4.6543676E-2,-2.6191187E-3,6.870688E-2,1.4106536E-1,5.6355104E-2,9.191928E-2,1.23838805E-1,1.761342E-1],"split_indices":[373,1,1,1,6,3,694,6,16,0,0,0,784,1,1,0,0,1,1,730,735,735,735,923,694,664,0,923,0,664,1,0,0,0,0,0,0,0,0,0,0,0,0,0,0,0,0,0,0,0,0,0,0,0,0,0,0,0,0],"split_type":[0,0,0,0,0,0,0,0,0,0,0,0,0,0,0,0,0,0,0,0,0,0,0,0,0,0,0,0,0,0,0,0,0,0,0,0,0,0,0,0,0,0,0,0,0,0,0,0,0,0,0,0,0,0,0,0,0,0,0],"sum_hessian":[4.2644E4,7.075E3,3.5569E4,4.201E3,2.874E3,1.4366E4,2.1203E4,4.38E2,3.763E3,1.716E3,1.158E3,2.17E3,1.2196E4,8.081E3,1.3122E4,2.58E2,1.8E2,2.272E3,1.491E3,1.294E3,4.22E2,8.55E2,3.03E2,1.48E3,6.9E2,5.195E3,7.001E3,6.429E3,1.652E3,6.017E3,7.105E3,1.249E3,1.023E3,8.31E2,6.6E2,4.43E2,8.51E2,2.14E2,2.08E2,4.21E2,4.34E2,1.53E2,1.5E2,8.18E2,6.62E2,2.97E2,3.93E2,2.334E3,2.861E3,5.341E3,1.66E3,2.973E3,3.456E3,1.331E3,3.21E2,2.14E3,3.877E3,5.214E3,1.891E3],"tree_param":{"num_deleted":"0","num_feature":"924","num_nodes":"59","size_leaf_vector":"1"}},{"base_weights":[-1.9961622E-4,1.2740917E0,-6.363462E0,-4.099201E0,1.6319368E0,-8.573074E0,-3.4941695E0,-5.098802E0,-2.1037626E0,-2.4672128E-1,2.4694183E0,-6.922662E0,-1.0982973E1,-6.0719037E0,-1.8378115E0,-6.084835E0,-4.2786646E0,-3.3965118E0,-1.1556213E0,-9.5640856E-1,4.9664468E-1,1.6117254E0,3.0913577E0,-1.0091636E1,-5.877525E0,-1.4217887E1,-9.836636E0,-5.143431E0,-2.5724176E-1,-8.0528057E-1,-4.61458E0,-1.6636097E-1,-1.9627708E-1,-1.10564254E-1,-1.4414848E-1,-1.1906341E-1,-7.9587296E-2,-5.3687394E-2,-1.9821944E-2,-1.0039664E-1,-2.3725161E-2,-5.874486E-2,2.0618692E-2,-1.5045309E-2,5.420161E-2,3.0625561E-2,9.85811E-2,-4.551994E-1,-2.7747154E-1,-1.7028384E-1,-3.2608724E-1,-5.7500196E-1,-3.9636302E-1,-3.807451E-1,-2.8599393E-1,-2.6252574E-1,-1.377083E-1,-1.7519887E-1,-0E0,-1.7568918E-1,-1.18513346E-1],"categories":[],"categories_nodes":[],"categories_segments":[],"categories_sizes":[],"default_left":[0,0,0,0,0,0,0,0,0,0,0,0,0,0,0,0,0,0,0,0,0,0,0,0,0,0,0,0,0,0,0,0,0,0,0,0,0,0,0,0,0,0,0,0,0,0,0,0,0,0,0,0,0,0,0,0,0,0,0,0,0],"id":5,"left_children":[1,3,5,7,9,11,13,15,17,19,21,23,25,27,29,31,33,35,37,39,41,43,45,47,49,51,53,55,-1,57,59,-1,-1,-1,-1,-1,-1,-1,-1,-1,-1,-1,-1,-1,-1,-1,-1,-1,-1,-1,-1,-1,-1,-1,-1,-1,-1,-1,-1,-1,-1],"loss_changes":[3.4495725E5,6.815408E4,4.4905375E4,4.371082E3,5.2291594E4,1.57353125E4,1.3155711E4,1.1072227E3,8.8919507E2,5.4082095E3,1.2237422E4,7.732617E3,5.6741094E3,2.677789E3,5.383658E3,5.464453E1,1.9260742E2,9.18457E1,1.2613342E2,2.0579307E3,2.3407358E3,3.989623E3,5.3494688E3,2.163711E3,1.6356523E3,1.4869375E3,7.3716406E2,1.6496133E3,0E0,5.5863794E3,3.4489453E2,0E0,0E0,0E0,0E0,0E0,0E0,0E0,0E0,0E0,0E0,0E0,0E0,0E0,0E0,0E0,0E0,0E0,0E0,0E0,0E0,0E0,0E0,0E0,0E0,0E0,0E0,0E0,0E0,0E0,0E0],"parents":[2147483647,0,0,1,1,2,2,3,3,4,4,5,5,6,6,7,7,8,8,9,9,10,10,11,11,12,12,13,13,14,14,15,15,16,16,17,17,18,18,19,19,20,20,21,21,22,22,23,23,24,24,25,25,26,26,27,27,29,29,30,30],"right_children":[2,4,6,8,10,12,14,16,18,20,22,24,26,28,30,32,34,36,38,40,42,44,46,48,50,52,54,56,-1,58,60,-1,-1,-1,-1,-1,-1,-1,-1,-1,-1,-1,-1,-1,-1,-1,-1,-1,-1,-1,-1,-1,-1,-1,-1,-1,-1,-1,-1,-1,-1],"split_conditions":[1.9E-1,2.5264558E-1,3.1870362E-1,-3.5884333E-1,2.0921148E-2,4.7502378E-1,1.0846885E-2,2.3884937E-2,2.3085648E-2,2.0129785E-2,3.36163E-2,-1.0819728E0,-1.0819728E0,6.230663E-1,6.230663E-1,-6.2663686E-1,-6.2663686E-1,2.1533756E-2,3.2623794E-2,-1.6085465E0,-1.6085465E0,-1.340753E0,-1.340753E0,-3.5884333E-1,1.962034E0,-3.5884333E-1,2.5264558E-1,-1.7870755E0,-2.5724176E-1,-1.7870755E0,7.123308E-1,-1.6636097E-1,-1.9627708E-1,-1.10564254E-1,-1.4414848E-1,-1.1906341E-1,-7.9587296E-2,-5.3687394E-2,-1.9821944E-2,-1.0039664E-1,-2.3725161E-2,-5.874486E-2,2.0618692E-2,-1.5045309E-2,5.420161E-2,3.0625561E-2,9.85811E-2,-4.551994E-1,-2.7747154E-1,-1.7028384E-1,-3.2608724E-1,-5.7500196E-1,-3.9636302E-1,-3.807451E-1,-2.8599393E-1,-2.6252574E-1,-1.377083E-1,-1.7519887E-1,-0E0,-1.7568918E-1,-1.18513346E-1],"split_indices":[566,3,2,0,694,490,724,694,694,784,784,2,2,0,0,0,0,784,694,0,0,0,0,0,0,0,3,0,0,0,0,0,0,0,0,0,0,0,0,0,0,0,0,0,0,0,0,0,0,0,0,0,0,0,0,0,0,0,0,0,0],"split_type":[0,0,0,0,0,0,0,0,0,0,0,0,0,0,0,0,0,0,0,0,0,0,0,0,0,0,0,0,0,0,0,0,0,0,0,0,0,0,0,0,0,0,0,0,0,0,0,0,0,0,0,0,0,0,0,0,0,0,0,0,0],"sum_hessian":[4.2536E4,3.544E4,7.096E3,2.211E3,3.3229E4,4.006E3,3.09E3,1.47E3,7.41E2,1.0245E4,2.2984E4,2.383E3,1.623E3,1.206E3,1.884E3,6.6E2,8.1E2,3.1E2,4.31E2,5.243E3,5.002E3,9.666E3,1.3318E4,5.86E2,1.797E3,4.18E2,1.205E3,8.85E2,3.21E2,1.376E3,5.08E2,3.18E2,3.42E2,3.91E2,4.19E2,1.68E2,1.42E2,1.84E2,2.47E2,3.36E2,4.907E3,3.58E2,4.644E3,8.15E2,8.851E3,1.147E3,1.2171E4,7.8E1,5.08E2,1.732E3,6.5E1,6.4E1,3.54E2,1.07E2,1.098E3,1.13E2,7.72E2,1.88E2,1.188E3,1.7E2,3.38E2],"tree_param":{"num_deleted":"0","num_feature":"924","num_nodes":"61","size_leaf_vector":"1"}},{"base_weights":[2.744371E-3,1.2467387E0,-6.2199645E0,-6.982371E-1,2.571386E0,-8.832581E0,-2.3400137E0,-1.9546218E0,4.6560335E-1,1.0624763E0,3.5250793E0,-1.5200593E1,-8.087137E0,-4.8380297E-1,-5.0686636E0,-6.2247505E0,-1.7154671E0,-4.710593E0,7.5224197E-1,6.610383E-1,2.6859019E0,2.5083642E0,4.387688E0,-4.9304178E-1,-4.093703E-1,-6.6560526E0,-1.02300825E1,1.1992299E-1,-2.2661452E0,-4.336218E0,-7.1079874E0,-8.301215E-3,-1.8743199E-1,-6.498091E-2,1.1293052E-3,-1.4163572E-1,-0E0,8.19117E-3,7.586037E-2,4.5298602E-2,-2.6661304E-3,6.7312844E-2,1.3740152E-1,5.239421E-2,8.705922E-2,1.1798385E-1,1.6909227E-1,-2.3335806E-1,-1.5633671E-1,-3.2851458E-1,-2.795535E-1,4.334187E-2,-1.6838228E-2,-3.5866108E-2,-9.681433E-2,-1.5187545E-1,-1.0706352E-1,-2.360632E-1,-1.8445194E-1],"categories":[],"categories_nodes":[],"categories_segments":[],"categories_sizes":[],"default_left":[0,0,0,0,0,0,0,0,0,0,0,0,0,0,0,0,0,0,0,0,0,0,0,0,0,0,0,0,0,0,0,0,0,0,0,0,0,0,0,0,0,0,0,0,0,0,0,0,0,0,0,0,0,0,0,0,0,0,0],"id":6,"left_children":[1,3,5,7,9,11,13,15,17,19,21,23,25,27,29,31,33,35,37,39,41,43,45,-1,-1,47,49,51,53,55,57,-1,-1,-1,-1,-1,-1,-1,-1,-1,-1,-1,-1,-1,-1,-1,-1,-1,-1,-1,-1,-1,-1,-1,-1,-1,-1,-1,-1],"loss_changes":[3.2928788E5,9.135057E4,7.176484E4,2.1009777E4,3.0329484E4,1.9783094E4,1.4438867E4,7.0104395E3,1.1059146E4,5.3121387E3,1.1289375E4,3.074922E2,1.1451422E4,1.8384128E3,1.6292402E3,2.6865234E1,5.1771504E3,1.6791016E1,6.0070176E3,4.1781426E3,1.3140166E3,1.7563516E3,3.89525E3,0E0,0E0,3.5811172E3,7.300781E2,1.152194E3,4.2348047E2,4.1509375E2,8.0930664E1,0E0,0E0,0E0,0E0,0E0,0E0,0E0,0E0,0E0,0E0,0E0,0E0,0E0,0E0,0E0,0E0,0E0,0E0,0E0,0E0,0E0,0E0,0E0,0E0,0E0,0E0,0E0,0E0],"parents":[2147483647,0,0,1,1,2,2,3,3,4,4,5,5,6,6,7,7,8,8,9,9,10,10,11,11,12,12,13,13,14,14,15,15,16,16,17,17,18,18,19,19,20,20,21,21,22,22,25,25,26,26,27,27,28,28,29,29,30,30],"right_children":[2,4,6,8,10,12,14,16,18,20,22,24,26,28,30,32,34,36,38,40,42,44,46,-1,-1,48,50,52,54,56,58,-1,-1,-1,-1,-1,-1,-1,-1,-1,-1,-1,-1,-1,-1,-1,-1,-1,-1,-1,-1,-1,-1,-1,-1,-1,-1,-1,-1],"split_conditions":[1.9E-1,-3.0782756E-1,3.123177E-1,2.5015304E-2,2.2979943E-2,-1.1605272E0,8.205E-1,-1.7806726E0,-1.7806726E0,1.3200537E0,7.7742666E-1,3.4957594E-1,4.7502378E-1,1.7674373E-1,1.7674373E-1,4.3215588E-1,7.123308E-1,7.49247E-1,7.123308E-1,9.505E1,8.9085984E-1,2.917194E-2,1.3975719E0,-4.9304178E-1,-4.093703E-1,-4.6286386E-1,-4.6286386E-1,6.862745E-1,3.0154693E0,2.8094494E0,2.8094494E0,-8.301215E-3,-1.8743199E-1,-6.498091E-2,1.1293052E-3,-1.4163572E-1,-0E0,8.19117E-3,7.586037E-2,4.5298602E-2,-2.6661304E-3,6.7312844E-2,1.3740152E-1,5.239421E-2,8.705922E-2,1.1798385E-1,1.6909227E-1,-2.3335806E-1,-1.5633671E-1,-3.2851458E-1,-2.795535E-1,4.334187E-2,-1.6838228E-2,-3.5866108E-2,-9.681433E-2,-1.5187545E-1,-1.0706352E-1,-2.360632E-1,-1.8445194E-1],"split_indices":[566,1,1,664,664,1,5,1,1,1,1,378,490,0,0,690,0,775,0,923,0,664,1,0,0,1,1,364,735,735,735,0,0,0,0,0,0,0,0,0,0,0,0,0,0,0,0,0,0,0,0,0,0,0,0,0,0,0,0],"split_type":[0,0,0,0,0,0,0,0,0,0,0,0,0,0,0,0,0,0,0,0,0,0,0,0,0,0,0,0,0,0,0,0,0,0,0,0,0,0,0,0,0,0,0,0,0,0,0,0,0,0,0,0,0,0,0,0,0,0,0],"sum_hessian":[4.2536E4,3.5451E4,7.085E3,1.4362E4,2.1089E4,4.232E3,2.853E3,6.907E3,7.455E3,8.17E3,1.2919E4,4.39E2,3.793E3,1.7E3,1.153E3,3.63E2,6.544E3,3.89E2,7.066E3,6.554E3,1.616E3,5.935E3,6.984E3,2.33E2,2.06E2,2.28E3,1.513E3,1.27E3,4.3E2,8.54E2,2.99E2,2E0,3.61E2,5.207E3,1.337E3,3.88E2,1E0,5.568E3,1.498E3,3.075E3,3.479E3,1.315E3,3.01E2,2.028E3,3.907E3,5.127E3,1.857E3,1.277E3,1.003E3,8.31E2,6.82E2,4.32E2,8.38E2,2.07E2,2.23E2,4.31E2,4.23E2,1.57E2,1.42E2],"tree_param":{"num_deleted":"0","num_feature":"924","num_nodes":"59","size_leaf_vector":"1"}},{"base_weights":[-1.5962294E-3,1.1987467E0,-6.068039E0,-7.0117766E-1,2.4881382E0,-8.577162E0,-2.284625E0,-1.7859926E0,5.3538966E-1,1.010185E0,3.4019654E0,-1.4605059E1,-7.8614397E0,-4.6072876E-1,-4.928477E0,-6.0194683E0,-1.5451111E0,-4.439178E0,8.18812E-1,1.7192166E-1,1.7543737E0,2.4301145E0,4.224712E0,-4.814709E-1,-3.923044E-1,-6.4530573E0,-9.93444E0,8.605172E-2,-2.1100314E0,-4.206057E0,-6.8847203E0,-1.6326466E-1,-1.9979152E-1,-2.533372E-2,-8.032799E-2,-1.338173E-1,-0E0,1.0161153E-2,7.876959E-2,-4.2107943E-3,6.1584074E-2,2.5423415E-2,7.593489E-2,6.811733E-2,1.301045E-1,1.1343137E-1,1.6374347E-1,-2.271456E-1,-1.5032272E-1,-3.1920975E-1,-2.6998535E-1,4.1335993E-2,-1.6370708E-2,-3.383063E-2,-9.3301155E-2,-1.05155535E-1,-1.4694086E-1,-1.7771266E-1,-2.2874686E-1],"categories":[],"categories_nodes":[],"categories_segments":[],"categories_sizes":[],"default_left":[0,0,0,0,0,0,0,0,0,0,0,0,0,0,0,0,0,0,0,0,0,0,0,0,0,0,0,0,0,0,0,0,0,0,0,0,0,0,0,0,0,0,0,0,0,0,0,0,0,0,0,0,0,0,0,0,0,0,0],"id":7,"left_children":[1,3,5,7,9,11,13,15,17,19,21,23,25,27,29,31,33,35,37,39,41,43,45,-1,-1,47,49,51,53,55,57,-1,-1,-1,-1,-1,-1,-1,-1,-1,-1,-1,-1,-1,-1,-1,-1,-1,-1,-1,-1,-1,-1,-1,-1,-1,-1,-1,-1],"loss_changes":[3.0941878E5,8.690378E4,6.655994E4,1.9243355E4,2.852064E4,1.7905031E4,1.3490849E4,7.750742E3,9.445584E3,5.032885E3,1.0398922E4,4.7489062E2,1.0846969E4,1.5043357E3,1.5241348E3,4.275293E1,5.724168E3,2.8955078E1,5.491734E3,2.2400596E3,2.9986797E3,1.7831875E3,3.7976562E3,0E0,0E0,3.5240469E3,7.546719E2,1.0224852E3,3.8794812E2,3.4832422E2,8.524805E1,0E0,0E0,0E0,0E0,0E0,0E0,0E0,0E0,0E0,0E0,0E0,0E0,0E0,0E0,0E0,0E0,0E0,0E0,0E0,0E0,0E0,0E0,0E0,0E0,0E0,0E0,0E0,0E0],"parents":[2147483647,0,0,1,1,2,2,3,3,4,4,5,5,6,6,7,7,8,8,9,9,10,10,11,11,12,12,13,13,14,14,15,15,16,16,17,17,18,18,19,19,20,20,21,21,22,22,25,25,26,26,27,27,28,28,29,29,30,30],"right_children":[2,4,6,8,10,12,14,16,18,20,22,24,26,28,30,32,34,36,38,40,42,44,46,-1,-1,48,50,52,54,56,58,-1,-1,-1,-1,-1,-1,-1,-1,-1,-1,-1,-1,-1,-1,-1,-1,-1,-1,-1,-1,-1,-1,-1,-1,-1,-1,-1,-1],"split_conditions":[3.4E-1,-3.0782756E-1,3.123177E-1,2.5966462E-2,2.239756E-2,-1.1605272E0,2.555E-1,-1.7806726E0,-1.7806726E0,2.0659722E-2,7.7742666E-1,3.4957594E-1,2.555E-1,1.7674373E-1,1.7674373E-1,9.427E1,9.515E1,6.416543E-1,7.123308E-1,1.3975719E0,7.7742666E-1,1.2479179E0,1.3975719E0,-4.814709E-1,-3.923044E-1,-4.6286386E-1,-4.6286386E-1,1.8181819E-1,9.5E-1,5.8111113E-1,5.8111113E-1,-1.6326466E-1,-1.9979152E-1,-2.533372E-2,-8.032799E-2,-1.338173E-1,-0E0,1.0161153E-2,7.876959E-2,-4.2107943E-3,6.1584074E-2,2.5423415E-2,7.593489E-2,6.811733E-2,1.301045E-1,1.1343137E-1,1.6374347E-1,-2.271456E-1,-1.5032272E-1,-3.1920975E-1,-2.6998535E-1,4.1335993E-2,-1.6370708E-2,-3.383063E-2,-9.3301155E-2,-1.05155535E-1,-1.4694086E-1,-1.7771266E-1,-2.2874686E-1],"split_indices":[607,1,1,694,694,1,16,1,1,784,1,378,16,0,0,923,923,655,0,1,1,0,1,0,0,1,1,357,358,7,7,0,0,0,0,0,0,0,0,0,0,0,0,0,0,0,0,0,0,0,0,0,0,0,0,0,0,0,0],"split_type":[0,0,0,0,0,0,0,0,0,0,0,0,0,0,0,0,0,0,0,0,0,0,0,0,0,0,0,0,0,0,0,0,0,0,0,0,0,0,0,0,0,0,0,0,0,0,0,0,0,0,0,0,0,0,0,0,0,0,0],"sum_hessian":[4.2486E4,3.5469E4,7.017E3,1.4339E4,2.113E4,4.217E3,2.8E3,7.639E3,6.7E3,8.076E3,1.3054E4,4.43E2,3.774E3,1.659E3,1.141E3,4.08E2,7.231E3,3.59E2,6.341E3,3.801E3,4.275E3,5.99E3,7.064E3,2.17E2,2.26E2,2.253E3,1.521E3,1.246E3,4.13E2,8.39E2,3.02E2,2.27E2,1.81E2,4.471E3,2.76E3,3.57E2,2E0,5.013E3,1.328E3,3.26E3,5.41E2,1.976E3,2.299E3,5.533E3,4.57E2,5.203E3,1.861E3,1.263E3,9.9E2,8.53E2,6.68E2,4.1E2,8.36E2,2.12E2,2.01E2,4.25E2,4.14E2,1.41E2,1.61E2],"tree_param":{"num_deleted":"0","num_feature":"924","num_nodes":"59","size_leaf_vector":"1"}},{"base_weights":[5.6961915E-3,1.1744565E0,-5.8301296E0,-5.094391E-1,1.9111573E0,-4.319419E0,-8.080743E0,-1.1564326E0,2.8973266E-1,1.2572281E0,2.7319741E0,-1.7784127E0,-5.334836E0,-5.492962E0,-9.098893E0,-1.8621393E-1,-1.6425227E0,-3.8651192E-1,1.0724833E0,5.906404E-1,1.941959E0,2.0819182E0,3.4772413E0,-5.440179E0,-7.5865805E-1,-4.6811194E0,-8.766969E0,-2.4711075E-1,-4.7250667E0,-8.455235E0,-1.2336583E1,-3.1548223E-4,-6.818068E-2,-3.109389E-2,-6.7226715E-2,-3.7662607E-2,3.2755516E-3,1.5233076E-2,5.423825E-2,-3.9612977E-3,3.3623185E-2,6.340587E-2,-6.956712E-3,4.149294E-2,8.127233E-2,7.86597E-2,1.21835284E-1,-1.993581E-1,-1.4115468E-1,1.1001486E-2,-5.214104E-2,-1.1673843E-1,-1.632947E-1,-2.2956854E-1,-3.396817E-1,-1.0877082E-1,-1.6941343E-1,-3.4125713E-1,-2.4686949E-1,-3.4230664E-1,-4.2035735E-1],"categories":[],"categories_nodes":[],"categories_segments":[],"categories_sizes":[],"default_left":[0,0,0,0,0,0,0,0,0,0,0,0,0,0,0,0,0,0,0,0,0,0,0,0,0,0,0,0,0,0,0,0,0,0,0,0,0,0,0,0,0,0,0,0,0,0,0,0,0,0,0,0,0,0,0,0,0,0,0,0,0],"id":8,"left_children":[1,3,5,7,9,11,13,15,17,19,21,23,25,27,29,31,33,35,37,39,41,43,45,47,49,51,53,-1,55,57,59,-1,-1,-1,-1,-1,-1,-1,-1,-1,-1,-1,-1,-1,-1,-1,-1,-1,-1,-1,-1,-1,-1,-1,-1,-1,-1,-1,-1,-1,-1],"loss_changes":[2.9088816E5,4.4087047E4,2.4087594E4,5.595262E3,1.3250305E4,1.0959008E4,7.378453E3,2.8136802E3,2.56379E3,6.27291E3,5.277617E3,4.5324883E3,6.7072188E3,1.5942793E3,3.9907188E3,7.26281E2,1.4292197E3,1.1214187E3,9.2361865E2,2.6774263E3,2.537955E3,2.5485E3,2.5056445E3,1.3814355E2,1.061263E3,1.471668E3,1.1486328E3,0E0,5.799844E2,8.856797E2,1.22328125E2,0E0,0E0,0E0,0E0,0E0,0E0,0E0,0E0,0E0,0E0,0E0,0E0,0E0,0E0,0E0,0E0,0E0,0E0,0E0,0E0,0E0,0E0,0E0,0E0,0E0,0E0,0E0,0E0,0E0,0E0],"parents":[2147483647,0,0,1,1,2,2,3,3,4,4,5,5,6,6,7,7,8,8,9,9,10,10,11,11,12,12,13,13,14,14,15,15,16,16,17,17,18,18,19,19,20,20,21,21,22,22,23,23,24,24,25,25,26,26,28,28,29,29,30,30],"right_children":[2,4,6,8,10,12,14,16,18,20,22,24,26,28,30,32,34,36,38,40,42,44,46,48,50,52,54,-1,56,58,60,-1,-1,-1,-1,-1,-1,-1,-1,-1,-1,-1,-1,-1,-1,-1,-1,-1,-1,-1,-1,-1,-1,-1,-1,-1,-1,-1,-1,-1,-1],"split_conditions":[3.4E-1,2.3860412E-2,2.555E-1,8.747922E-2,8.747922E-2,-4.4810784E-1,-4.4810784E-1,9.505E1,-1.899623E-1,3.7248608E-2,-1.899623E-1,-1.6085465E0,1.2479179E0,-1.6085465E0,1.2479179E0,-1.7852902E-3,-4.4810784E-1,7.123308E-1,2.0442959E-2,-1.0765628E-1,-1.7852902E-3,3.6376253E-2,7.794491E1,-1.9656045E0,-7.159014E-1,3.45E-1,1.962034E0,-2.4711075E-1,-7.159014E-1,-3.5884333E-1,1.962034E0,-3.1548223E-4,-6.818068E-2,-3.109389E-2,-6.7226715E-2,-3.7662607E-2,3.2755516E-3,1.5233076E-2,5.423825E-2,-3.9612977E-3,3.3623185E-2,6.340587E-2,-6.956712E-3,4.149294E-2,8.127233E-2,7.86597E-2,1.21835284E-1,-1.993581E-1,-1.4115468E-1,1.1001486E-2,-5.214104E-2,-1.1673843E-1,-1.632947E-1,-2.2956854E-1,-3.396817E-1,-1.0877082E-1,-1.6941343E-1,-3.4125713E-1,-2.4686949E-1,-3.4230664E-1,-4.2035735E-1],"split_indices":[607,784,16,0,0,0,0,923,4,784,4,0,0,0,0,0,0,0,784,4,0,784,741,0,0,63,0,0,0,0,0,0,0,0,0,0,0,0,0,0,0,0,0,0,0,0,0,0,0,0,0,0,0,0,0,0,0,0,0,0,0],"split_type":[0,0,0,0,0,0,0,0,0,0,0,0,0,0,0,0,0,0,0,0,0,0,0,0,0,0,0,0,0,0,0,0,0,0,0,0,0,0,0,0,0,0,0,0,0,0,0,0,0,0,0,0,0,0,0,0,0,0,0,0,0],"sum_hessian":[4.2646E4,3.5532E4,7.114E3,1.0813E4,2.4719E4,4.261E3,2.853E3,5.977E3,4.836E3,1.3763E4,1.0956E4,1.219E3,3.042E3,8.1E2,2.043E3,1.998E3,3.979E3,2.593E3,2.243E3,6.978E3,6.785E3,5.858E3,5.098E3,2.63E2,9.56E2,2.56E3,4.82E2,1.72E2,6.38E2,1.711E3,3.32E2,1.846E3,1.52E2,1.982E3,1.997E3,9.43E2,1.65E3,1.273E3,9.7E2,2.951E3,4.027E3,6.29E3,4.95E2,2.776E3,3.082E3,2.075E3,3.023E3,9.2E1,1.71E2,4.44E2,5.12E2,1.265E3,1.295E3,3.42E2,1.4E2,2.97E2,3.41E2,1.15E2,1.596E3,2.25E2,1.07E2],"tree_param":{"num_deleted":"0","num_feature":"924","num_nodes":"61","size_leaf_vector":"1"}},{"base_weights":[1.6353367E-2,1.1369143E0,-5.6485386E0,-6.8700206E-1,2.3764925E0,-8.069417E0,-2.0584204E0,-3.8726141E0,-1.3158105E-1,9.4162214E-1,3.2139325E0,-1.3956532E1,-7.427022E0,-3.9925838E-1,-4.616174E0,-4.82995E0,-1.9428093E0,7.8693825E-1,-1.5957475E0,5.415241E-1,2.4917624E0,2.244251E0,4.031547E0,-4.5907867E-1,-3.7317333E-1,-6.1282644E0,-9.395766E0,1.5787286E-1,-1.9992285E0,-3.9175708E0,-6.402354E0,-1.15649015E-1,-1.6340446E-1,-8.265159E-2,-2.509062E-2,1.147196E-2,6.195428E-2,-7.251766E-2,-2.6525527E-2,-5.9907865E-3,3.665446E-2,6.2270265E-2,1.2596844E-1,6.259198E-2,1.2244936E-1,1.049139E-1,1.4711449E-1,-2.1540056E-1,-1.4342093E-1,-3.0255908E-1,-2.5487506E-1,-1.3937861E-2,4.2185638E-2,-2.9762272E-2,-8.757081E-2,-1.3829587E-1,-9.493182E-2,-2.1380766E-1,-1.6406542E-1],"categories":[],"categories_nodes":[],"categories_segments":[],"categories_sizes":[],"default_left":[0,0,0,0,0,0,0,0,0,0,0,0,0,0,0,0,0,0,0,0,0,0,0,0,0,0,0,0,0,0,0,0,0,0,0,0,0,0,0,0,0,0,0,0,0,0,0,0,0,0,0,0,0,0,0,0,0,0,0],"id":9,"left_children":[1,3,5,7,9,11,13,15,17,19,21,23,25,27,29,31,33,35,37,39,41,43,45,-1,-1,47,49,51,53,55,57,-1,-1,-1,-1,-1,-1,-1,-1,-1,-1,-1,-1,-1,-1,-1,-1,-1,-1,-1,-1,-1,-1,-1,-1,-1,-1,-1,-1],"loss_changes":[2.694214E5,8.0125125E4,6.0853266E4,2.5357766E4,2.5334422E4,1.5555594E4,1.1974042E4,3.892334E3,1.6429775E4,4.8134204E3,1.05243125E4,3.714922E2,9.4983125E3,1.5366776E3,1.3052168E3,7.841328E2,6.227024E2,3.871795E3,2.7390742E3,3.1238125E3,1.0960244E3,1.7336836E3,3.3075469E3,0E0,0E0,3.1311875E3,7.018281E2,9.94076E2,3.947129E2,3.6724414E2,9.258887E1,0E0,0E0,0E0,0E0,0E0,0E0,0E0,0E0,0E0,0E0,0E0,0E0,0E0,0E0,0E0,0E0,0E0,0E0,0E0,0E0,0E0,0E0,0E0,0E0,0E0,0E0,0E0,0E0],"parents":[2147483647,0,0,1,1,2,2,3,3,4,4,5,5,6,6,7,7,8,8,9,9,10,10,11,11,12,12,13,13,14,14,15,15,16,16,17,17,18,18,19,19,20,20,21,21,22,22,25,25,26,26,27,27,28,28,29,29,30,30],"right_children":[2,4,6,8,10,12,14,16,18,20,22,24,26,28,30,32,34,36,38,40,42,44,46,-1,-1,48,50,52,54,56,58,-1,-1,-1,-1,-1,-1,-1,-1,-1,-1,-1,-1,-1,-1,-1,-1,-1,-1,-1,-1,-1,-1,-1,-1,-1,-1,-1,-1],"split_conditions":[1.9E-1,-3.0782756E-1,3.123177E-1,2.5264558E-1,2.258606E-2,-1.1605272E0,7.952381E-1,-3.5884333E-1,9.19E1,1.3200537E0,7.7742666E-1,4.147011E-2,4.7502378E-1,1.7674373E-1,1.7674373E-1,8.594E1,3.1719573E-2,7.123308E-1,1.8597176E-2,1.8495543E-2,8.9085984E-1,1.2479179E0,1.3200537E0,-4.5907867E-1,-3.7317333E-1,-4.6286386E-1,-4.6286386E-1,1E0,3.0154693E0,2.8094494E0,2.8094494E0,-1.15649015E-1,-1.6340446E-1,-8.265159E-2,-2.509062E-2,1.147196E-2,6.195428E-2,-7.251766E-2,-2.6525527E-2,-5.9907865E-3,3.665446E-2,6.2270265E-2,1.2596844E-1,6.259198E-2,1.2244936E-1,1.049139E-1,1.4711449E-1,-2.1540056E-1,-1.4342093E-1,-3.0255908E-1,-2.5487506E-1,-1.3937861E-2,4.2185638E-2,-2.9762272E-2,-8.757081E-2,-1.3829587E-1,-9.493182E-2,-2.1380766E-1,-1.6406542E-1],"split_indices":[566,1,1,3,664,1,6,0,923,1,1,413,490,0,0,923,784,0,664,664,0,0,1,0,0,1,1,339,735,735,735,0,0,0,0,0,0,0,0,0,0,0,0,0,0,0,0,0,0,0,0,0,0,0,0,0,0,0,0],"split_type":[0,0,0,0,0,0,0,0,0,0,0,0,0,0,0,0,0,0,0,0,0,0,0,0,0,0,0,0,0,0,0,0,0,0,0,0,0,0,0,0,0,0,0,0,0,0,0,0,0,0,0,0,0,0,0,0,0,0,0],"sum_hessian":[4.2441E4,3.5434E4,7.007E3,1.4337E4,2.1097E4,4.183E3,2.824E3,2.126E3,1.2211E4,7.778E3,1.3319E4,4.07E2,3.776E3,1.715E3,1.109E3,1.418E3,7.08E2,7.503E3,4.708E3,6.186E3,1.592E3,6.098E3,7.221E3,2.05E2,2.02E2,2.281E3,1.495E3,1.272E3,4.43E2,8.03E2,3.06E2,5.57E2,8.61E2,4.05E2,3.03E2,5.703E3,1.8E3,2.181E3,2.527E3,2.959E3,3.227E3,1.285E3,3.07E2,5.621E3,4.77E2,4.486E3,2.735E3,1.275E3,1.006E3,8.33E2,6.62E2,8.48E2,4.24E2,2.15E2,2.28E2,4.11E2,3.92E2,1.63E2,1.43E2],"tree_param":{"num_deleted":"0","num_feature":"924","num_nodes":"59","size_leaf_vector":"1"}},{"base_weights":[1.4290843E-2,1.1036339E0,-5.4581466E0,-6.718004E-1,2.3061473E0,-7.83094E0,-1.9717729E0,-3.7538738E0,-1.2668864E-1,9.7993815E-1,3.1685815E0,-1.3571483E1,-7.177398E0,-3.4083173E-1,-4.3966217E0,-4.689431E0,-1.9282253E0,-1.4397278E0,8.653387E-1,1.4918327E-1,1.7092096E0,2.234497E0,3.9627688E0,-4.4249028E-1,-3.6469808E-1,-5.9367747E0,-9.119254E0,1.7569181E-1,-1.9127669E0,-3.7517326E0,-6.2138076E0,-1.6210212E-1,-1.1537019E-1,-8.228159E-2,-2.650606E-2,-5.5727202E-2,-1.2136191E-3,1.3597634E-2,6.562747E-2,-1.8005135E-2,2.5391066E-2,2.3604585E-2,7.056562E-2,6.266343E-2,1.213307E-1,8.945364E-2,1.337534E-1,-2.0929758E-1,-1.3860136E-1,-2.6512343E-1,-3.3902514E-1,4.2411063E-2,-1.331492E-2,-6.992695E-2,1.2061528E-3,-1.3305376E-1,-9.2265934E-2,-2.0684871E-1,-1.5975462E-1],"categories":[],"categories_nodes":[],"categories_segments":[],"categories_sizes":[],"default_left":[0,0,0,0,0,0,0,0,0,0,0,0,0,0,0,0,0,0,0,0,0,0,0,0,0,0,0,0,0,0,0,0,0,0,0,0,0,0,0,0,0,0,0,0,0,0,0,0,0,0,0,0,0,0,0,0,0,0,0],"id":10,"left_children":[1,3,5,7,9,11,13,15,17,19,21,23,25,27,29,31,33,35,37,39,41,43,45,-1,-1,47,49,51,53,55,57,-1,-1,-1,-1,-1,-1,-1,-1,-1,-1,-1,-1,-1,-1,-1,-1,-1,-1,-1,-1,-1,-1,-1,-1,-1,-1,-1,-1],"loss_changes":[2.543822E5,7.599206E4,5.854167E4,2.4133436E4,2.425211E4,1.5552531E4,1.1340936E4,3.6496328E3,1.5915115E4,5.062421E3,9.500781E3,2.7414844E2,8.972281E3,1.4024227E3,1.275832E3,7.891426E2,6.105325E2,3.0689922E3,3.7813413E3,2.047104E3,2.6278496E3,1.524377E3,3.3276172E3,0E0,0E0,3.0744375E3,6.447969E2,9.973975E2,3.5574707E2,3.466787E2,7.0288086E1,0E0,0E0,0E0,0E0,0E0,0E0,0E0,0E0,0E0,0E0,0E0,0E0,0E0,0E0,0E0,0E0,0E0,0E0,0E0,0E0,0E0,0E0,0E0,0E0,0E0,0E0,0E0,0E0],"parents":[2147483647,0,0,1,1,2,2,3,3,4,4,5,5,6,6,7,7,8,8,9,9,10,10,11,11,12,12,13,13,14,14,15,15,16,16,17,17,18,18,19,19,20,20,21,21,22,22,25,25,26,26,27,27,28,28,29,29,30,30],"right_children":[2,4,6,8,10,12,14,16,18,20,22,24,26,28,30,32,34,36,38,40,42,44,46,-1,-1,48,50,52,54,56,58,-1,-1,-1,-1,-1,-1,-1,-1,-1,-1,-1,-1,-1,-1,-1,-1,-1,-1,-1,-1,-1,-1,-1,-1,-1,-1,-1,-1],"split_conditions":[1.9E-1,-3.0782756E-1,3.123177E-1,2.5264558E-1,2.3085555E-2,-1.1605272E0,2.555E-1,-3.5884333E-1,2.3866521E-2,7.7742666E-1,7.7742666E-1,3.4957594E-1,4.7502378E-1,1.7674373E-1,1.7674373E-1,2.579982E-2,2.6900182E-2,7.123308E-1,7.123308E-1,1.8792037E-2,1.8202947E-2,1.2479179E0,-2.7226833E-1,-4.4249028E-1,-3.6469808E-1,-4.6286386E-1,1.2479179E0,2.278163E0,4.1506934E3,7.317073E1,7.317073E1,-1.6210212E-1,-1.1537019E-1,-8.228159E-2,-2.650606E-2,-5.5727202E-2,-1.2136191E-3,1.3597634E-2,6.562747E-2,-1.8005135E-2,2.5391066E-2,2.3604585E-2,7.056562E-2,6.266343E-2,1.213307E-1,8.945364E-2,1.337534E-1,-2.0929758E-1,-1.3860136E-1,-2.6512343E-1,-3.3902514E-1,4.2411063E-2,-1.331492E-2,-6.992695E-2,1.2061528E-3,-1.3305376E-1,-9.2265934E-2,-2.0684871E-1,-1.5975462E-1],"split_indices":[566,1,1,3,664,1,16,0,664,1,1,378,490,0,0,664,664,0,0,664,664,0,4,0,0,1,0,376,377,376,376,0,0,0,0,0,0,0,0,0,0,0,0,0,0,0,0,0,0,0,0,0,0,0,0,0,0,0,0],"split_type":[0,0,0,0,0,0,0,0,0,0,0,0,0,0,0,0,0,0,0,0,0,0,0,0,0,0,0,0,0,0,0,0,0,0,0,0,0,0,0,0,0,0,0,0,0,0,0,0,0,0,0,0,0,0,0,0,0,0,0],"sum_hessian":[4.267E4,3.5588E4,7.082E3,1.437E4,2.1218E4,4.212E3,2.87E3,2.157E3,1.2213E4,8.364E3,1.2854E4,4.26E2,3.786E3,1.718E3,1.152E3,1.423E3,7.34E2,5.257E3,6.956E3,3.913E3,4.451E3,5.912E3,6.942E3,2.21E2,2.05E2,2.316E3,1.47E3,1.293E3,4.25E2,8.56E2,2.96E2,7.63E2,6.6E2,4.09E2,3.25E2,4.046E3,1.211E3,5.307E3,1.649E3,1.884E3,2.029E3,1.832E3,2.619E3,5.477E3,4.35E2,2.337E3,4.605E3,1.288E3,1.028E3,1.312E3,1.58E2,4.32E2,8.61E2,3.51E2,7.4E1,4.18E2,4.38E2,1.58E2,1.38E2],"tree_param":{"num_deleted":"0","num_feature":"924","num_nodes":"59","size_leaf_vector":"1"}},{"base_weights":[-1.9244263E-3,1.0702275E0,-5.3699164E0,-3.657543E0,1.3749961E0,-7.2347426E0,-2.9421525E0,-4.547079E0,-1.8312348E0,-3.9441344E-1,2.0267565E0,-1.0017677E1,-6.2609706E0,-1.5359629E0,-5.063106E0,-5.3441296E0,-3.9360967E0,-3.2208154E0,-1.2694113E0,-2.2413855E0,-2.205798E-1,1.2970427E0,2.6289704E0,-4.446922E-1,-9.190838E0,-4.9773674E0,-8.225187E0,-6.6099495E-1,-3.914998E0,-4.223979E0,-7.1666403E0,-1.7733634E-1,-1.4795732E-1,-1.2739965E-1,-9.858089E-2,-0E0,-9.84198E-2,-5.2334603E-2,-1.8007081E-2,-8.428748E-2,-4.8212193E-2,-2.7475262E-2,1.6910322E-2,-1.5870452E-2,4.408058E-2,6.091702E-2,9.426212E-2,-2.2929287E-1,-3.672022E-1,-1.4285491E-1,-2.8396937E-1,-3.2829005E-1,-2.3836164E-1,-1.4253885E-1,8.5911754E-4,-1.0359757E-1,-1.702772E-1,-2.1689619E-1,-1.1267002E-1,-2.0327672E-1,-2.606868E-1],"categories":[],"categories_nodes":[],"categories_segments":[],"categories_sizes":[],"default_left":[0,0,0,0,0,0,0,0,0,0,0,0,0,0,0,0,0,0,0,0,0,0,0,0,0,0,0,0,0,0,0,0,0,0,0,0,0,0,0,0,0,0,0,0,0,0,0,0,0,0,0,0,0,0,0,0,0,0,0,0,0],"id":11,"left_children":[1,3,5,7,9,11,13,15,17,19,21,23,25,27,29,31,33,35,37,39,41,43,45,-1,47,49,51,53,55,57,59,-1,-1,-1,-1,-1,-1,-1,-1,-1,-1,-1,-1,-1,-1,-1,-1,-1,-1,-1,-1,-1,-1,-1,-1,-1,-1,-1,-1,-1,-1],"loss_changes":[2.449298E5,5.111109E4,3.2003234E4,3.4537812E3,3.843676E4,1.0679047E4,9.156602E3,6.323203E2,5.310869E2,2.8719072E3,1.06840625E4,3.7638672E3,7.3742656E3,3.8465898E3,2.0710996E3,5.3628906E1,1.1624902E2,3.515381E1,1.5268713E2,2.5523901E2,4.474894E3,3.471166E3,4.067336E3,0E0,3.9440938E3,1.6123398E3,6.5991406E2,3.853552E3,3.3833203E2,1.1557334E3,4.1742188E1,0E0,0E0,0E0,0E0,0E0,0E0,0E0,0E0,0E0,0E0,0E0,0E0,0E0,0E0,0E0,0E0,0E0,0E0,0E0,0E0,0E0,0E0,0E0,0E0,0E0,0E0,0E0,0E0,0E0,0E0],"parents":[2147483647,0,0,1,1,2,2,3,3,4,4,5,5,6,6,7,7,8,8,9,9,10,10,11,11,12,12,13,13,14,14,15,15,16,16,17,17,18,18,19,19,20,20,21,21,22,22,24,24,25,25,26,26,27,27,28,28,29,29,30,30],"right_children":[2,4,6,8,10,12,14,16,18,20,22,24,26,28,30,32,34,36,38,40,42,44,46,-1,48,50,52,54,56,58,60,-1,-1,-1,-1,-1,-1,-1,-1,-1,-1,-1,-1,-1,-1,-1,-1,-1,-1,-1,-1,-1,-1,-1,-1,-1,-1,-1,-1,-1,-1],"split_conditions":[3.4E-1,2.5264558E-1,3.1870362E-1,-3.5884333E-1,2.0550853E-2,-1.0819728E0,2.555E-1,2.3761114E-2,2.081374E-2,-1.340753E0,2.9579619E-2,-3.5884333E-1,2.555E-1,6.230663E-1,6.230663E-1,1.8597176E-2,4.357508E-2,3.867288E-1,3.2623794E-2,1.7774682E-2,-1.0765628E-1,-1.340753E0,-1.899623E-1,-4.446922E-1,1.4264469E0,1.962034E0,2.5264558E-1,-1.7870755E0,1.0693889E0,-1.7870755E0,1.0693889E0,-1.7733634E-1,-1.4795732E-1,-1.2739965E-1,-9.858089E-2,-0E0,-9.84198E-2,-5.2334603E-2,-1.8007081E-2,-8.428748E-2,-4.8212193E-2,-2.7475262E-2,1.6910322E-2,-1.5870452E-2,4.408058E-2,6.091702E-2,9.426212E-2,-2.2929287E-1,-3.672022E-1,-1.4285491E-1,-2.8396937E-1,-3.2829005E-1,-2.3836164E-1,-1.4253885E-1,8.5911754E-4,-1.0359757E-1,-1.702772E-1,-2.1689619E-1,-1.1267002E-1,-2.0327672E-1,-2.606868E-1],"split_indices":[607,3,2,0,664,2,16,664,664,0,664,0,16,0,0,664,664,365,694,664,4,0,4,0,0,0,3,0,0,0,0,0,0,0,0,0,0,0,0,0,0,0,0,0,0,0,0,0,0,0,0,0,0,0,0,0,0,0,0,0,0],"split_type":[0,0,0,0,0,0,0,0,0,0,0,0,0,0,0,0,0,0,0,0,0,0,0,0,0,0,0,0,0,0,0,0,0,0,0,0,0,0,0,0,0,0,0,0,0,0,0,0,0,0,0,0,0,0,0,0,0,0,0,0,0],"sum_hessian":[4.2551E4,3.5468E4,7.083E3,2.146E3,3.3322E4,4.003E3,3.08E3,1.44E3,7.06E2,8.969E3,2.4353E4,1.032E3,2.971E3,1.855E3,1.225E3,6.16E2,8.24E2,1.99E2,5.07E2,7.68E2,8.201E3,1.1016E4,1.3337E4,1.46E2,8.86E2,1.802E3,1.169E3,1.359E3,4.96E2,8.81E2,3.44E2,2.45E2,3.71E2,5.47E2,2.77E2,4E0,1.95E2,2.92E2,2.15E2,3.99E2,3.69E2,4.349E3,3.852E3,9.48E2,1.0068E4,6.164E3,7.173E3,5.93E2,2.93E2,1.724E3,7.8E1,1.01E2,1.068E3,1.95E2,1.164E3,3.99E2,9.7E1,1.14E2,7.67E2,2.84E2,6E1],"tree_param":{"num_deleted":"0","num_feature":"924","num_nodes":"61","size_leaf_vector":"1"}},{"base_weights":[1.02463225E-2,-5.1857495E0,1.0454514E0,-7.387022E0,-1.8558E0,-6.7406005E-1,2.2084222E0,-1.275164E1,-6.7692556E0,-2.94937E-1,-4.1693E0,-3.5628583E0,-1.6216621E-1,9.4265604E-1,3.019299E0,-3.477251E-1,-4.2569464E-1,-5.6038413E0,-8.588556E0,1.7584687E-1,-1.7967138E0,-3.5230663E0,-5.9133973E0,-4.425563E0,-1.8705779E0,-1.9008558E0,5.0535E-1,1.523013E-1,1.6272194E0,2.600141E0,4.6535134E0,-1.9842361E-1,-1.297925E-1,-2.7835593E-1,-2.3127382E-1,-4.8541527E-2,1.72533E-2,-7.888282E-2,-2.667067E-2,-8.677405E-2,-1.2517229E-1,-1.5033118E-1,-1.978393E-1,-1.605077E-1,-1.1561299E-1,-8.0571815E-2,-2.9019162E-2,-6.8699114E-2,-1.7532598E-2,3.0946878E-3,5.4126065E-2,2.3330715E-2,-1.4170206E-2,6.891357E-2,2.404366E-2,6.729097E-2,1.1493693E-1,1.2852775E-1,1.8933082E-1],"categories":[],"categories_nodes":[],"categories_segments":[],"categories_sizes":[],"default_left":[0,0,0,0,0,0,0,0,0,0,0,0,0,0,0,0,0,0,0,0,0,0,0,0,0,0,0,0,0,0,0,0,0,0,0,0,0,0,0,0,0,0,0,0,0,0,0,0,0,0,0,0,0,0,0,0,0,0,0],"id":12,"left_children":[1,3,5,7,9,11,13,15,17,19,21,23,25,27,29,-1,-1,31,33,35,37,39,41,43,45,47,49,51,53,55,57,-1,-1,-1,-1,-1,-1,-1,-1,-1,-1,-1,-1,-1,-1,-1,-1,-1,-1,-1,-1,-1,-1,-1,-1,-1,-1,-1,-1],"loss_changes":[2.3014095E5,5.2047406E4,7.135836E4,1.3946453E4,1.0210661E4,2.127587E4,2.1829953E4,3.2660156E2,8.005E3,1.2031732E3,1.2149121E3,3.1267812E3,1.4202609E4,4.4935205E3,8.839789E3,0E0,0E0,2.9401719E3,7.131094E2,9.226784E2,2.9164343E2,2.978086E2,8.596875E1,6.883008E2,5.257634E2,1.7277695E3,4.6113135E3,1.5110995E3,2.4508818E3,4.506E3,1.5323867E3,0E0,0E0,0E0,0E0,0E0,0E0,0E0,0E0,0E0,0E0,0E0,0E0,0E0,0E0,0E0,0E0,0E0,0E0,0E0,0E0,0E0,0E0,0E0,0E0,0E0,0E0,0E0,0E0],"parents":[2147483647,0,0,1,1,2,2,3,3,4,4,5,5,6,6,7,7,8,8,9,9,10,10,11,11,12,12,13,13,14,14,17,17,18,18,19,19,20,20,21,21,22,22,23,23,24,24,25,25,26,26,27,27,28,28,29,29,30,30],"right_children":[2,4,6,8,10,12,14,16,18,20,22,24,26,28,30,-1,-1,32,34,36,38,40,42,44,46,48,50,52,54,56,58,-1,-1,-1,-1,-1,-1,-1,-1,-1,-1,-1,-1,-1,-1,-1,-1,-1,-1,-1,-1,-1,-1,-1,-1,-1,-1,-1,-1],"split_conditions":[1.4605495E-1,3.123177E-1,-3.0782756E-1,-1.1605272E0,8.205E-1,2.5264558E-1,2.3085555E-2,8.205E-1,2.555E-1,1.7674373E-1,1.7674373E-1,-3.5884333E-1,2.064058E-2,7.7742666E-1,1.3200537E0,-3.477251E-1,-4.2569464E-1,-4.6286386E-1,-4.6286386E-1,6.999085E-1,-1.1900631E0,1.6713439E-1,1.6713439E-1,2.2494571E-2,2.5335975E-2,7.123308E-1,7.123308E-1,9.522E1,9.574E1,5.507919E-1,8.9085984E-1,-1.9842361E-1,-1.297925E-1,-2.7835593E-1,-2.3127382E-1,-4.8541527E-2,1.72533E-2,-7.888282E-2,-2.667067E-2,-8.677405E-2,-1.2517229E-1,-1.5033118E-1,-1.978393E-1,-1.605077E-1,-1.1561299E-1,-8.0571815E-2,-2.9019162E-2,-6.8699114E-2,-1.7532598E-2,3.0946878E-3,5.4126065E-2,2.3330715E-2,-1.4170206E-2,6.891357E-2,2.404366E-2,6.729097E-2,1.1493693E-1,1.2852775E-1,1.8933082E-1],"split_indices":[373,1,1,1,5,3,664,5,16,0,0,0,664,1,1,0,0,1,1,1,737,738,738,694,694,0,0,923,923,4,0,0,0,0,0,0,0,0,0,0,0,0,0,0,0,0,0,0,0,0,0,0,0,0,0,0,0,0,0],"split_type":[0,0,0,0,0,0,0,0,0,0,0,0,0,0,0,0,0,0,0,0,0,0,0,0,0,0,0,0,0,0,0,0,0,0,0,0,0,0,0,0,0,0,0,0,0,0,0,0,0,0,0,0,0,0,0,0,0,0,0],"sum_hessian":[4.2784E4,7.106E3,3.5678E4,4.276E3,2.83E3,1.4394E4,2.1284E4,4.37E2,3.839E3,1.692E3,1.138E3,2.164E3,1.223E4,8.314E3,1.297E4,2.53E2,1.84E2,2.346E3,1.493E3,1.288E3,4.04E2,8.36E2,3.02E2,1.43E3,7.34E2,3.393E3,8.837E3,3.862E3,4.452E3,1.0328E4,2.642E3,1.304E3,1.042E3,8.24E2,6.69E2,2.32E2,1.056E3,2.07E2,1.97E2,4.32E2,4.04E2,1.39E2,1.63E2,5.38E2,8.92E2,3.82E2,3.52E2,2.616E3,7.77E2,6.751E3,2.086E3,1.932E3,1.93E3,2.454E3,1.998E3,8.012E3,2.316E3,2.168E3,4.74E2],"tree_param":{"num_deleted":"0","num_feature":"924","num_nodes":"59","size_leaf_vector":"1"}},{"base_weights":[3.7257299E-3,1.0122992E0,-5.033197E0,-6.2976086E-1,2.1415737E0,-7.2181163E0,-1.7611924E0,-1.5781693E0,4.055985E-1,1.1002511E0,3.0649247E0,-1.2411337E1,-6.6002636E0,-2.603789E-1,-4.027809E0,-2.0031102E0,1.1945291E-1,-3.8611405E0,6.356189E-1,7.199809E-1,2.5575185E0,2.1592245E0,3.8191671E0,-3.3771557E-1,-4.154655E-1,-5.4634624E0,-8.371739E0,8.949213E-1,-8.5236484E-1,-3.4195697E0,-5.6674943E0,-1.556966E-1,-5.3364936E-2,-2.6977932E-2,2.1151245E-2,-1.2828588E-1,-1.0201812E-1,6.9122487E-3,6.35738E-2,-2.5920437E-3,3.9675508E-2,6.4685374E-2,1.2866157E-1,6.0515277E-2,1.13709286E-1,9.9591784E-2,1.3931598E-1,-1.9304158E-1,-1.2612626E-1,-2.4342184E-1,-3.108659E-1,4.0565334E-2,-1.6397735E-2,-1.2648944E-2,-6.503526E-2,-8.248548E-2,-1.2193624E-1,-1.437008E-1,-1.9031909E-1],"categories":[],"categories_nodes":[],"categories_segments":[],"categories_sizes":[],"default_left":[0,0,0,0,0,0,0,0,0,0,0,0,0,0,0,0,0,0,0,0,0,0,0,0,0,0,0,0,0,0,0,0,0,0,0,0,0,0,0,0,0,0,0,0,0,0,0,0,0,0,0,0,0,0,0,0,0,0,0],"id":13,"left_children":[1,3,5,7,9,11,13,15,17,19,21,23,25,27,29,31,33,35,37,39,41,43,45,-1,-1,47,49,51,53,55,57,-1,-1,-1,-1,-1,-1,-1,-1,-1,-1,-1,-1,-1,-1,-1,-1,-1,-1,-1,-1,-1,-1,-1,-1,-1,-1,-1,-1],"loss_changes":[2.16812E5,6.594928E4,5.0848984E4,1.4234142E4,2.0241625E4,1.3473609E4,9.693689E3,5.4634355E3,6.794629E3,5.4770566E3,7.5932656E3,3.6114062E2,7.557797E3,1.1777429E3,1.0669375E3,4.2861543E3,9.044575E2,1.5553223E1,3.9450266E3,3.8238823E3,1.3851191E3,1.1442891E3,2.4528594E3,0E0,0E0,2.767375E3,5.3960156E2,3.8751498E2,6.363504E2,3.1806543E2,8.567871E1,0E0,0E0,0E0,0E0,0E0,0E0,0E0,0E0,0E0,0E0,0E0,0E0,0E0,0E0,0E0,0E0,0E0,0E0,0E0,0E0,0E0,0E0,0E0,0E0,0E0,0E0,0E0,0E0],"parents":[2147483647,0,0,1,1,2,2,3,3,4,4,5,5,6,6,7,7,8,8,9,9,10,10,11,11,12,12,13,13,14,14,15,15,16,16,17,17,18,18,19,19,20,20,21,21,22,22,25,25,26,26,27,27,28,28,29,29,30,30],"right_children":[2,4,6,8,10,12,14,16,18,20,22,24,26,28,30,32,34,36,38,40,42,44,46,-1,-1,48,50,52,54,56,58,-1,-1,-1,-1,-1,-1,-1,-1,-1,-1,-1,-1,-1,-1,-1,-1,-1,-1,-1,-1,-1,-1,-1,-1,-1,-1,-1,-1],"split_conditions":[1.9E-1,-3.0782756E-1,3.123177E-1,1.365889E2,2.4801206E-2,-1.1605272E0,7.952381E-1,7.123308E-1,-1.7806726E0,1.3200537E0,7.7742666E-1,7.952381E-1,6.600876E-1,6.862745E-1,1.7674373E-1,-1.7806726E0,1.8792037E-2,2.2156781E-1,7.123308E-1,1.9111764E-2,8.9085984E-1,1.2479179E0,1.3200537E0,-3.3771557E-1,-4.154655E-1,-4.6286386E-1,1.2479179E0,1.7674373E-1,1.7674373E-1,1.6713439E-1,1.6713439E-1,-1.556966E-1,-5.3364936E-2,-2.6977932E-2,2.1151245E-2,-1.2828588E-1,-1.0201812E-1,6.9122487E-3,6.35738E-2,-2.5920437E-3,3.9675508E-2,6.4685374E-2,1.2866157E-1,6.0515277E-2,1.13709286E-1,9.9591784E-2,1.3931598E-1,-1.9304158E-1,-1.2612626E-1,-2.4342184E-1,-3.108659E-1,4.0565334E-2,-1.6397735E-2,-1.2648944E-2,-6.503526E-2,-8.248548E-2,-1.2193624E-1,-1.437008E-1,-1.9031909E-1],"split_indices":[566,1,1,801,664,1,6,0,1,1,1,6,491,364,0,1,664,4,0,664,0,0,1,0,0,1,0,0,0,738,738,0,0,0,0,0,0,0,0,0,0,0,0,0,0,0,0,0,0,0,0,0,0,0,0,0,0,0,0],"split_type":[0,0,0,0,0,0,0,0,0,0,0,0,0,0,0,0,0,0,0,0,0,0,0,0,0,0,0,0,0,0,0,0,0,0,0,0,0,0,0,0,0,0,0,0,0,0,0,0,0,0,0,0,0,0,0,0,0,0,0],"sum_hessian":[4.2677E4,3.5559E4,7.118E3,1.4489E4,2.107E4,4.266E3,2.852E3,7.563E3,6.926E3,9.906E3,1.1164E4,4.49E2,3.817E3,1.718E3,1.134E3,6.05E3,1.513E3,3.52E2,6.574E3,7.86E3,2.046E3,5.078E3,6.086E3,2.6E2,1.89E2,2.331E3,1.486E3,5.8E2,1.138E3,8.33E2,3.01E2,3.94E2,5.656E3,5.5E2,9.63E2,1.73E2,1.79E2,5.167E3,1.407E3,3.36E3,4.5E3,1.666E3,3.8E2,4.677E3,4.01E2,3.799E3,2.287E3,1.31E3,1.021E3,1.326E3,1.6E2,4.42E2,1.38E2,8.61E2,2.77E2,4.16E2,4.17E2,1.4E2,1.61E2],"tree_param":{"num_deleted":"0","num_feature":"924","num_nodes":"59","size_leaf_vector":"1"}},{"base_weights":[-2.0013031E-4,9.854996E-1,-4.8008556E0,-3.2221064E-1,2.320871E0,-6.881847E0,-1.6861249E0,-3.343416E0,8.7796144E-2,2.872668E0,7.009947E-1,-1.1839001E1,-6.3154836E0,-2.6938248E-1,-3.8500478E0,-4.160611E0,-1.7057638E0,-8.571362E-1,1.1186757E0,2.3656385E0,3.880417E0,-9.48397E-2,1.3032926E0,-2.5663288E0,-1.1969221E1,-7.7895937E0,-4.9107056E0,-8.139634E-1,8.514887E-1,-3.2729042E0,-5.431879E0,-1.4500102E-1,-1.0475227E-1,-7.2029404E-2,-2.3169883E-2,-5.27857E-2,-6.7604543E-3,1.668179E-2,5.3823795E-2,6.0621627E-2,1.08087525E-1,1.0912972E-1,1.7688277E-1,-2.2153325E-2,1.3321588E-2,3.2810494E-2,1.0900667E-1,-8.384017E-2,-0E0,-3.9202157E-1,-3.221223E-1,-2.5494337E-1,-2.0718089E-1,-1.7550427E-1,-1.1072643E-1,-1.2697447E-2,-6.0481854E-2,3.9754115E-2,-1.6521363E-2,-1.1730813E-1,-7.906713E-2,-1.8289787E-1,-1.3928664E-1],"categories":[],"categories_nodes":[],"categories_segments":[],"categories_sizes":[],"default_left":[0,0,0,0,0,0,0,0,0,0,0,0,0,0,0,0,0,0,0,0,0,0,0,0,0,0,0,0,0,0,0,0,0,0,0,0,0,0,0,0,0,0,0,0,0,0,0,0,0,0,0,0,0,0,0,0,0,0,0,0,0,0,0],"id":14,"left_children":[1,3,5,7,9,11,13,15,17,19,21,23,25,27,29,31,33,35,37,39,41,43,45,47,49,51,53,55,57,59,61,-1,-1,-1,-1,-1,-1,-1,-1,-1,-1,-1,-1,-1,-1,-1,-1,-1,-1,-1,-1,-1,-1,-1,-1,-1,-1,-1,-1,-1,-1,-1,-1],"loss_changes":[2.0152861E5,6.1705277E4,4.6976016E4,2.212265E4,1.5611406E4,1.200325E4,8.90375E3,2.8240996E3,1.5314759E4,6.6247812E3,2.1349714E3,4.298711E2,7.9760156E3,1.076197E3,9.8821484E2,5.807012E2,4.507627E2,4.6687817E3,2.8486992E3,3.6732656E3,2.0614688E3,6.657256E2,1.2151025E3,3.2071533E0,2.377539E2,1.0271016E3,2.2281133E3,5.48953E2,3.8566922E2,3.046289E2,7.008008E1,0E0,0E0,0E0,0E0,0E0,0E0,0E0,0E0,0E0,0E0,0E0,0E0,0E0,0E0,0E0,0E0,0E0,0E0,0E0,0E0,0E0,0E0,0E0,0E0,0E0,0E0,0E0,0E0,0E0,0E0,0E0,0E0],"parents":[2147483647,0,0,1,1,2,2,3,3,4,4,5,5,6,6,7,7,8,8,9,9,10,10,11,11,12,12,13,13,14,14,15,15,16,16,17,17,18,18,19,19,20,20,21,21,22,22,23,23,24,24,25,25,26,26,27,27,28,28,29,29,30,30],"right_children":[2,4,6,8,10,12,14,16,18,20,22,24,26,28,30,32,34,36,38,40,42,44,46,48,50,52,54,56,58,60,62,-1,-1,-1,-1,-1,-1,-1,-1,-1,-1,-1,-1,-1,-1,-1,-1,-1,-1,-1,-1,-1,-1,-1,-1,-1,-1,-1,-1,-1,-1,-1,-1],"split_conditions":[5.2342064E-5,-7.527308E-2,3.123177E-1,2.5264558E-1,9.407E1,-1.1605272E0,1.805E-1,-3.5884333E-1,2.6064638E-2,3.0387384E-1,-1.899623E-1,1.1565585E-1,3.7567544E-1,1.102443E1,1.7674373E-1,2.1414157E-2,3.1719573E-2,1.9426491E-2,3.5527274E-1,1.3200537E0,1.7076446E0,-9.10498E-2,1.940199E0,1.1015153E0,3.7567544E-1,-4.6286386E-1,-4.6286386E-1,1.7674373E-1,1.7674373E-1,2.8094494E0,2.8094494E0,-1.4500102E-1,-1.0475227E-1,-7.2029404E-2,-2.3169883E-2,-5.27857E-2,-6.7604543E-3,1.668179E-2,5.3823795E-2,6.0621627E-2,1.08087525E-1,1.0912972E-1,1.7688277E-1,-2.2153325E-2,1.3321588E-2,3.2810494E-2,1.0900667E-1,-8.384017E-2,-0E0,-3.9202157E-1,-3.221223E-1,-2.5494337E-1,-2.0718089E-1,-1.7550427E-1,-1.1072643E-1,-1.2697447E-2,-6.0481854E-2,3.9754115E-2,-1.6521363E-2,-1.1730813E-1,-7.906713E-2,-1.8289787E-1,-1.3928664E-1],"split_indices":[361,1,1,3,923,1,17,0,664,4,4,368,391,474,0,754,784,664,0,1,1,0,1,737,391,1,1,0,0,735,735,0,0,0,0,0,0,0,0,0,0,0,0,0,0,0,0,0,0,0,0,0,0,0,0,0,0,0,0,0,0,0,0],"split_type":[0,0,0,0,0,0,0,0,0,0,0,0,0,0,0,0,0,0,0,0,0,0,0,0,0,0,0,0,0,0,0,0,0,0,0,0,0,0,0,0,0,0,0,0,0,0,0,0,0,0,0,0,0,0,0,0,0,0,0,0,0,0,0],"sum_hessian":[4.2582E4,3.5329E4,7.253E3,1.7849E4,1.748E4,4.346E3,2.907E3,2.132E3,1.5717E4,1.3036E4,4.444E3,4.41E2,3.905E3,1.759E3,1.148E3,1.419E3,7.13E2,8.199E3,7.518E3,8.679E3,4.357E3,1.913E3,2.531E3,7E0,4.34E2,1.9E3,2.005E3,1.186E3,5.73E2,8.47E2,3.01E2,6.99E2,7.2E2,4.05E2,3.08E2,3.373E3,4.826E3,4.106E3,3.412E3,6.793E3,1.886E3,3.895E3,4.62E2,8.74E2,1.039E3,2.326E3,2.05E2,6E0,1E0,2.18E2,2.16E2,1.043E3,8.57E2,1.127E3,8.78E2,8.99E2,2.87E2,4.3E2,1.43E2,4.16E2,4.31E2,1.54E2,1.47E2],"tree_param":{"num_deleted":"0","num_feature":"924","num_nodes":"63","size_leaf_vector":"1"}},{"base_weights":[-1.651621E-2,9.3999E-1,-4.757532E0,-4.485042E-1,1.5702518E0,-6.411866E0,-2.577905E0,-5.1760726E0,-3.4184223E-1,-3.9435155E0,1.6905985E0,-8.901926E0,-5.532094E0,-1.3580545E0,-4.403048E0,-5.204433E0,-3.8793664E-3,-1.00883E0,1.6306503E-1,-4.293282E0,-3.4295986E0,1.0209748E0,2.208156E0,-3.950758E-1,-8.178769E0,-4.366899E0,-7.2764163E0,-2.2096188E0,-9.014322E-2,-5.204767E0,-3.2689936E0,-0E0,-1.5662536E-1,-4.7422625E-2,-1.5865834E-2,-1.2052064E-2,1.9474015E-2,-1.2915292E-1,-0E0,-1.0383963E-1,-0E0,1.3365902E-2,4.523293E-2,4.940984E-2,8.091041E-2,-2.0749423E-1,-2.961851E-1,-1.256108E-1,-2.527684E-1,-2.1376729E-1,-3.204666E-1,-3.6985487E-2,-8.036524E-2,2.6603267E-2,-1.6917963E-2,-1.3798924E-1,-1.7317931E-1,-8.028371E-2,-1.1556966E-1],"categories":[],"categories_nodes":[],"categories_segments":[],"categories_sizes":[],"default_left":[0,0,0,0,0,0,0,0,0,0,0,0,0,0,0,0,0,0,0,0,0,0,0,0,0,0,0,0,0,0,0,0,0,0,0,0,0,0,0,0,0,0,0,0,0,0,0,0,0,0,0,0,0,0,0,0,0,0,0],"id":15,"left_children":[1,3,5,7,9,11,13,15,17,19,21,23,25,27,29,31,-1,33,35,37,39,41,43,-1,45,47,49,51,53,55,57,-1,-1,-1,-1,-1,-1,-1,-1,-1,-1,-1,-1,-1,-1,-1,-1,-1,-1,-1,-1,-1,-1,-1,-1,-1,-1,-1,-1],"loss_changes":[1.9286325E5,3.0972473E4,2.5685625E4,5.550882E3,1.6158383E4,8.7458125E3,6.839205E3,1.7433105E1,3.6423066E3,4.0853516E1,8.242102E3,2.976164E3,6.0070703E3,1.9934016E3,1.0624941E3,1.3979492E1,0E0,1.2709219E3,1.6896351E3,1.1741699E1,2.5004395E1,2.9038086E3,3.6631367E3,0E0,1.7547422E3,1.2108047E3,4.103086E2,4.8902197E2,3.4624594E2,1.6251172E2,1.3894043E2,0E0,0E0,0E0,0E0,0E0,0E0,0E0,0E0,0E0,0E0,0E0,0E0,0E0,0E0,0E0,0E0,0E0,0E0,0E0,0E0,0E0,0E0,0E0,0E0,0E0,0E0,0E0,0E0],"parents":[2147483647,0,0,1,1,2,2,3,3,4,4,5,5,6,6,7,7,8,8,9,9,10,10,11,11,12,12,13,13,14,14,15,15,17,17,18,18,19,19,20,20,21,21,22,22,24,24,25,25,26,26,27,27,28,28,29,29,30,30],"right_children":[2,4,6,8,10,12,14,16,18,20,22,24,26,28,30,32,-1,34,36,38,40,42,44,-1,46,48,50,52,54,56,58,-1,-1,-1,-1,-1,-1,-1,-1,-1,-1,-1,-1,-1,-1,-1,-1,-1,-1,-1,-1,-1,-1,-1,-1,-1,-1,-1,-1],"split_conditions":[3.4E-1,2.1458324E-2,3.1870362E-1,-1.392916E0,-1.392916E0,-1.0819728E0,1.805E-1,1.2598804E0,1.7695414E-2,3.0387384E-1,3.0750843E-2,-1.392916E0,1.805E-1,1.0318785E0,1.0318785E0,1.1E-1,-3.8793664E-3,-1.899623E-1,-1.899623E-1,1.5670434E-1,1.35E-1,-1.899623E-1,-1.899623E-1,-3.950758E-1,2.2156781E-1,1.7606865E-1,1.7606865E-1,7.2077924E-1,2.9825458E-1,8.4588236E-1,8.4588236E-1,-0E0,-1.5662536E-1,-4.7422625E-2,-1.5865834E-2,-1.2052064E-2,1.9474015E-2,-1.2915292E-1,-0E0,-1.0383963E-1,-0E0,1.3365902E-2,4.523293E-2,4.940984E-2,8.091041E-2,-2.0749423E-1,-2.961851E-1,-1.256108E-1,-2.527684E-1,-2.1376729E-1,-3.204666E-1,-3.6985487E-2,-8.036524E-2,2.6603267E-2,-1.6917963E-2,-1.3798924E-1,-1.7317931E-1,-8.028371E-2,-1.1556966E-1],"split_indices":[607,664,2,2,2,2,17,858,664,4,664,2,17,2,2,119,0,4,4,82,51,4,4,0,4,2,2,361,360,5,5,0,0,0,0,0,0,0,0,0,0,0,0,0,0,0,0,0,0,0,0,0,0,0,0,0,0,0,0],"split_type":[0,0,0,0,0,0,0,0,0,0,0,0,0,0,0,0,0,0,0,0,0,0,0,0,0,0,0,0,0,0,0,0,0,0,0,0,0,0,0,0,0,0,0,0,0,0,0,0,0,0,0,0,0,0,0,0,0,0,0],"sum_hessian":[4.2523E4,3.5385E4,7.138E3,1.1046E4,2.4339E4,4.055E3,3.083E3,2.41E2,1.0805E4,5.18E2,2.3821E4,1.053E3,3.002E3,1.851E3,1.232E3,2.39E2,2E0,4.657E3,6.148E3,2.96E2,2.22E2,1.039E4,1.3431E4,1.47E2,9.06E2,1.805E3,1.197E3,1.105E3,7.46E2,7.16E2,5.16E2,1E0,2.38E2,2.12E3,2.537E3,2.841E3,3.307E3,2.95E2,1E0,2.2E2,2E0,4.766E3,5.624E3,6.26E3,7.171E3,5.26E2,3.8E2,1.733E3,7.2E1,1.153E3,4.4E1,3.63E2,7.42E2,2.41E2,5.05E2,3.58E2,3.58E2,2.64E2,2.52E2],"tree_param":{"num_deleted":"0","num_feature":"924","num_nodes":"59","size_leaf_vector":"1"}},{"base_weights":[9.6689514E-4,9.277118E-1,-4.6400404E0,-6.188694E-1,1.9781346E0,-6.625862E0,-1.5784053E0,-1.922729E0,1.602012E-2,1.0048441E0,2.8091066E0,-1.1300611E1,-6.0827236E0,-2.1767682E-1,-3.6626458E0,-5.0831356E0,-1.7500587E0,-3.7920825E0,2.2924533E-1,6.618358E-1,2.363841E0,1.9616675E0,3.5162823E0,-3.7161282E-1,-2.9892194E-1,-5.0250425E0,-7.6779747E0,1.4643636E0,-5.6067556E-1,-5.6940074E0,-3.388302E0,-1.5306006E-1,-0E0,-6.711162E-2,-3.1601753E-2,-1.24332875E-1,-9.975719E-2,-1.3194877E-2,2.2702456E-2,-2.1392254E-3,3.631645E-2,5.9697654E-2,1.1785954E-1,4.918193E-2,7.580397E-2,1.0040174E-1,1.7702387E-1,-1.7704213E-1,-1.1606371E-1,-2.4819343E-1,-2.0729473E-1,-1.2426313E-2,5.1990423E-2,-6.9013335E-2,-1.0932883E-2,-1.4181422E-1,-1.9435605E-1,-8.293444E-2,-1.1910083E-1],"categories":[],"categories_nodes":[],"categories_segments":[],"categories_sizes":[],"default_left":[0,0,0,0,0,0,0,0,0,0,0,0,0,0,0,0,0,0,0,0,0,0,0,0,0,0,0,0,0,0,0,0,0,0,0,0,0,0,0,0,0,0,0,0,0,0,0,0,0,0,0,0,0,0,0,0,0,0,0],"id":16,"left_children":[1,3,5,7,9,11,13,15,17,19,21,23,25,27,29,31,33,35,37,39,41,43,45,-1,-1,47,49,51,53,55,57,-1,-1,-1,-1,-1,-1,-1,-1,-1,-1,-1,-1,-1,-1,-1,-1,-1,-1,-1,-1,-1,-1,-1,-1,-1,-1,-1,-1],"loss_changes":[1.8336327E5,5.7741914E4,4.309717E4,1.1905505E4,1.7101492E4,1.0735859E4,7.913623E3,2.5314492E3,7.841306E3,4.534129E3,6.8106484E3,3.3229297E2,6.397578E3,9.7626337E2,5.488594E2,2.0472656E1,1.5016309E3,3.4248047E1,3.2338315E3,3.1381943E3,1.1151855E3,9.26084E2,2.4467734E3,0E0,0E0,2.2839766E3,5.4140625E2,1.4973053E2,4.7173495E2,1.4667969E0,3.1275488E2,0E0,0E0,0E0,0E0,0E0,0E0,0E0,0E0,0E0,0E0,0E0,0E0,0E0,0E0,0E0,0E0,0E0,0E0,0E0,0E0,0E0,0E0,0E0,0E0,0E0,0E0,0E0,0E0],"parents":[2147483647,0,0,1,1,2,2,3,3,4,4,5,5,6,6,7,7,8,8,9,9,10,10,11,11,12,12,13,13,14,14,15,15,16,16,17,17,18,18,19,19,20,20,21,21,22,22,25,25,26,26,27,27,28,28,29,29,30,30],"right_children":[2,4,6,8,10,12,14,16,18,20,22,24,26,28,30,32,34,36,38,40,42,44,46,-1,-1,48,50,52,54,56,58,-1,-1,-1,-1,-1,-1,-1,-1,-1,-1,-1,-1,-1,-1,-1,-1,-1,-1,-1,-1,-1,-1,-1,-1,-1,-1,-1,-1],"split_conditions":[1.9E-1,-3.0782756E-1,3.123177E-1,2.1290137E-2,2.779594E-2,-1.1605272E0,2.555E-1,-1.7806726E0,-1.7806726E0,1.3200537E0,7.7742666E-1,3.4957594E-1,4.7502378E-1,8E-1,-3.944712E-1,8.829193E0,1.8507961E-2,2.2919124E-1,3.530126E-2,2.1140136E-2,1.940199E0,3.761782E2,1.940199E0,-3.7161282E-1,-2.9892194E-1,-4.6286386E-1,-4.6286386E-1,6.999085E-1,-3.944712E-1,8.549448E-1,3.356327E-1,-1.5306006E-1,-0E0,-6.711162E-2,-3.1601753E-2,-1.24332875E-1,-9.975719E-2,-1.3194877E-2,2.2702456E-2,-2.1392254E-3,3.631645E-2,5.9697654E-2,1.1785954E-1,4.918193E-2,7.580397E-2,1.0040174E-1,1.7702387E-1,-1.7704213E-1,-1.1606371E-1,-2.4819343E-1,-2.0729473E-1,-1.2426313E-2,5.1990423E-2,-6.9013335E-2,-1.0932883E-2,-1.4181422E-1,-1.9435605E-1,-8.293444E-2,-1.1910083E-1],"split_indices":[566,1,1,694,784,1,16,1,1,1,1,378,490,367,2,250,694,800,784,784,1,801,1,0,0,1,1,1,2,1,369,0,0,0,0,0,0,0,0,0,0,0,0,0,0,0,0,0,0,0,0,0,0,0,0,0,0,0,0],"split_type":[0,0,0,0,0,0,0,0,0,0,0,0,0,0,0,0,0,0,0,0,0,0,0,0,0,0,0,0,0,0,0,0,0,0,0,0,0,0,0,0,0,0,0,0,0,0,0,0,0,0,0,0,0,0,0,0,0,0,0],"sum_hessian":[4.2631E4,3.5537E4,7.094E3,1.4373E4,2.1164E4,4.301E3,2.793E3,4.707E3,9.666E3,9.751E3,1.1413E4,4.43E2,3.858E3,1.692E3,1.101E3,2.4E2,4.467E3,5.1E2,9.156E3,7.79E3,1.961E3,5.197E3,6.216E3,2.34E2,2.09E2,2.326E3,1.532E3,2.84E2,1.408E3,1.25E2,9.76E2,2.39E2,1E0,2.624E3,1.843E3,2.78E2,2.32E2,4.034E3,5.122E3,3.333E3,4.457E3,1.588E3,3.73E2,3.318E3,1.879E3,5.809E3,4.07E2,1.317E3,1.009E3,8.5E2,6.82E2,3.4E1,2.5E2,1.39E2,1.269E3,6.4E1,6.1E1,4.79E2,4.97E2],"tree_param":{"num_deleted":"0","num_feature":"924","num_nodes":"59","size_leaf_vector":"1"}},{"base_weights":[3.2168573E-3,-4.758164E0,8.476686E-1,-6.3477974E0,-2.6739097E0,-3.2269096E0,1.1088932E0,-8.721673E0,-5.5329895E0,-1.5367856E0,-4.126429E0,-3.9865124E0,-1.711382E0,1.7298977E0,-3.098888E-1,-3.8265747E-1,-7.9679103E0,-4.4237103E0,-6.8972836E0,-8.298674E-1,-3.4011517E0,-3.438536E0,-5.931149E0,-3.3339636E0,-4.742121E0,-8.9985496E-1,-2.377008E0,1.1280941E0,2.2655995E0,4.0680996E-1,-7.2808933E-1,-2.0090827E-1,-3.122884E-1,-1.2721887E-1,-2.4925987E-1,-2.8396562E-1,-1.9873036E-1,-1.2527972E-1,-8.039703E-3,-8.908233E-2,-1.560233E-1,-1.7757213E-1,-9.2851125E-2,-1.6692927E-1,-2.192014E-1,-1.08557306E-1,-8.170473E-2,-2.1292028E-1,-1.381197E-1,-3.4149814E-2,-4.00747E-3,-8.778903E-2,-5.574652E-2,-1.5430335E-2,3.8462102E-2,5.315871E-2,8.297908E-2,-3.3902578E-2,1.6665872E-2,-7.179828E-2,-1.724573E-2],"categories":[],"categories_nodes":[],"categories_segments":[],"categories_sizes":[],"default_left":[0,0,0,0,0,0,0,0,0,0,0,0,0,0,0,0,0,0,0,0,0,0,0,0,0,0,0,0,0,0,0,0,0,0,0,0,0,0,0,0,0,0,0,0,0,0,0,0,0,0,0,0,0,0,0,0,0,0,0,0,0],"id":17,"left_children":[1,3,5,7,9,11,13,15,17,19,21,23,25,27,29,-1,31,33,35,37,39,41,43,45,47,49,51,53,55,57,59,-1,-1,-1,-1,-1,-1,-1,-1,-1,-1,-1,-1,-1,-1,-1,-1,-1,-1,-1,-1,-1,-1,-1,-1,-1,-1,-1,-1,-1,-1],"loss_changes":[1.7160222E5,2.1239562E4,3.8587773E4,6.9110625E3,4.5719473E3,2.4834785E3,3.002427E4,2.5529766E3,4.021414E3,2.0468965E3,1.446918E3,6.6008984E2,3.8237866E2,7.625289E3,3.1105908E3,0E0,2.2515742E3,9.6375586E2,6.780039E2,2.1277566E3,2.7792383E2,6.946504E2,4.8109375E1,9.817676E1,1.1621289E2,5.7279022E1,8.875806E1,2.8279658E3,3.0725352E3,8.728816E2,1.6606575E3,0E0,0E0,0E0,0E0,0E0,0E0,0E0,0E0,0E0,0E0,0E0,0E0,0E0,0E0,0E0,0E0,0E0,0E0,0E0,0E0,0E0,0E0,0E0,0E0,0E0,0E0,0E0,0E0,0E0,0E0],"parents":[2147483647,0,0,1,1,2,2,3,3,4,4,5,5,6,6,7,7,8,8,9,9,10,10,11,11,12,12,13,13,14,14,16,16,17,17,18,18,19,19,20,20,21,21,22,22,23,23,24,24,25,25,26,26,27,27,28,28,29,29,30,30],"right_children":[2,4,6,8,10,12,14,16,18,20,22,24,26,28,30,-1,32,34,36,38,40,42,44,46,48,50,52,54,56,58,60,-1,-1,-1,-1,-1,-1,-1,-1,-1,-1,-1,-1,-1,-1,-1,-1,-1,-1,-1,-1,-1,-1,-1,-1,-1,-1,-1,-1,-1,-1],"split_conditions":[1.0363822E3,3.1870362E-1,2.5264558E-1,-1.0819728E0,8.205E-1,-3.5884333E-1,9.36E1,-3.5884333E-1,2.555E-1,6.230663E-1,6.230663E-1,9.044E1,8.85E1,3.0552903E-2,9.567E1,-3.8265747E-1,1.4264469E0,1.962034E0,2.5264558E-1,-1.7870755E0,1.0693889E0,-1.7870755E0,1.0693889E0,5.311422E-1,5E-2,1.126934E0,1.2917956E0,-1.340753E0,-1.0765628E-1,-1.340753E0,-1.340753E0,-2.0090827E-1,-3.122884E-1,-1.2721887E-1,-2.4925987E-1,-2.8396562E-1,-1.9873036E-1,-1.2527972E-1,-8.039703E-3,-8.908233E-2,-1.560233E-1,-1.7757213E-1,-9.2851125E-2,-1.6692927E-1,-2.192014E-1,-1.08557306E-1,-8.170473E-2,-2.1292028E-1,-1.381197E-1,-3.4149814E-2,-4.00747E-3,-8.778903E-2,-5.574652E-2,-1.5430335E-2,3.8462102E-2,5.315871E-2,8.297908E-2,-3.3902578E-2,1.6665872E-2,-7.179828E-2,-1.724573E-2],"split_indices":[209,2,3,2,5,0,923,0,16,0,0,923,923,694,923,0,0,0,3,0,0,0,0,411,194,4,347,0,4,0,0,0,0,0,0,0,0,0,0,0,0,0,0,0,0,0,0,0,0,0,0,0,0,0,0,0,0,0,0,0,0],"split_type":[0,0,0,0,0,0,0,0,0,0,0,0,0,0,0,0,0,0,0,0,0,0,0,0,0,0,0,0,0,0,0,0,0,0,0,0,0,0,0,0,0,0,0,0,0,0,0,0,0,0,0,0,0,0,0,0,0,0,0,0,0],"sum_hessian":[4.2678E4,6.427E3,3.6251E4,3.643E3,2.784E3,2.182E3,3.4069E4,9.25E2,2.718E3,1.565E3,1.219E3,1.45E3,7.32E2,2.3698E4,1.0371E4,1.4E2,7.85E2,1.505E3,1.213E3,1.138E3,4.27E2,8.88E2,3.31E2,7.86E2,6.64E2,3.34E2,3.98E2,1.1166E4,1.2532E4,3.819E3,6.552E3,5.22E2,2.63E2,1.442E3,6.3E1,1.09E2,1.104E3,1.61E2,9.77E2,3.5E2,7.7E1,1.03E2,7.85E2,2.71E2,6E1,5.26E2,2.6E2,3E1,6.34E2,2.51E2,8.3E1,1.86E2,2.12E2,9.55E2,1.0211E4,6.316E3,6.216E3,3.34E2,3.485E3,5.48E2,6.004E3],"tree_param":{"num_deleted":"0","num_feature":"924","num_nodes":"61","size_leaf_vector":"1"}},{"base_weights":[1.36999E-3,-4.338456E0,8.690291E-1,-6.2237144E0,-1.4710523E0,-3.4655526E-1,2.1087732E0,-1.0643607E1,-5.7134237E0,-2.0106468E-1,-3.3888252E0,-1.5671678E0,2.5949073E-1,7.6022065E-1,2.6518948E0,-3.4452504E-1,-9.204536E0,-6.9632297E0,-4.480618E0,8.672991E-1,-6.949029E-1,-2.883732E0,-4.7849464E0,-2.2376392E0,-5.650594E-1,-4.556489E-1,1.280154E0,2.856276E-1,1.6906329E0,2.1719449E0,3.609124E0,-2.7722323E-1,-0E0,-2.2915915E-1,-1.8310927E-1,-1.6141859E-1,-1.0001728E-1,3.9934155E-2,-1.4140637E-2,-8.789832E-3,-5.5333953E-2,-1.2473701E-1,-7.6976664E-2,-1.636963E-1,-1.2085252E-1,-1.4308786E-1,-6.102234E-2,-3.9733615E-2,-3.0160497E-3,-1.0887066E-1,-6.1122794E-3,1.9305717E-2,5.3015493E-2,-9.882281E-3,2.4465274E-2,4.5059692E-2,1.1135546E-1,5.5214904E-2,9.996222E-2,1.01365626E-1,1.6484998E-1],"categories":[],"categories_nodes":[],"categories_segments":[],"categories_sizes":[],"default_left":[0,0,0,0,0,0,0,0,0,0,0,0,0,0,0,0,0,0,0,0,0,0,0,0,0,0,0,0,0,0,0,0,0,0,0,0,0,0,0,0,0,0,0,0,0,0,0,0,0,0,0,0,0,0,0,0,0,0,0,0,0],"id":18,"left_children":[1,3,5,7,9,11,13,15,17,19,21,23,25,27,29,-1,31,33,35,37,39,41,43,45,47,49,51,53,55,57,59,-1,-1,-1,-1,-1,-1,-1,-1,-1,-1,-1,-1,-1,-1,-1,-1,-1,-1,-1,-1,-1,-1,-1,-1,-1,-1,-1,-1,-1,-1],"loss_changes":[1.6070823E5,3.8399234E4,5.3612727E4,9.502844E3,6.8658535E3,1.3291337E4,1.2885258E4,2.5996094E2,5.8352344E3,8.986614E2,7.4200977E2,3.994169E3,8.764101E3,2.2278772E3,5.7341094E3,0E0,3.0911133E1,9.726797E2,1.9452969E3,3.3726846E2,5.316827E2,2.9543896E2,7.6958496E1,1.7996758E3,8.399596E2,5.6283354E3,1.5243472E3,1.0957051E3,6.240674E2,3.1898984E3,1.7544883E3,0E0,0E0,0E0,0E0,0E0,0E0,0E0,0E0,0E0,0E0,0E0,0E0,0E0,0E0,0E0,0E0,0E0,0E0,0E0,0E0,0E0,0E0,0E0,0E0,0E0,0E0,0E0,0E0,0E0,0E0],"parents":[2147483647,0,0,1,1,2,2,3,3,4,4,5,5,6,6,7,7,8,8,9,9,10,10,11,11,12,12,13,13,14,14,16,16,17,17,18,18,19,19,20,20,21,21,22,22,23,23,24,24,25,25,26,26,27,27,28,28,29,29,30,30],"right_children":[2,4,6,8,10,12,14,16,18,20,22,24,26,28,30,-1,32,34,36,38,40,42,44,46,48,50,52,54,56,58,60,-1,-1,-1,-1,-1,-1,-1,-1,-1,-1,-1,-1,-1,-1,-1,-1,-1,-1,-1,-1,-1,-1,-1,-1,-1,-1,-1,-1,-1,-1],"split_conditions":[2.8E-1,3.123177E-1,-7.527308E-2,-1.1605272E0,8.205E-1,9.797369E1,2.0905172E-2,4.1483518E-2,9.0766154E-2,7.126847E-2,1.7674373E-1,3.5527274E-1,3.5527274E-1,3.0387384E-1,3.0387384E-1,-3.4452504E-1,3.9872974E-1,-4.6286386E-1,-4.6286386E-1,1.7674373E-1,1.7674373E-1,6.999085E-1,3.613134E-1,-1.7806726E0,1.761552E-2,-1.7806726E0,3.501459E-2,-9.10498E-2,1.940199E0,1.3200537E0,1.7076446E0,-2.7722323E-1,-0E0,-2.2915915E-1,-1.8310927E-1,-1.6141859E-1,-1.0001728E-1,3.9934155E-2,-1.4140637E-2,-8.789832E-3,-5.5333953E-2,-1.2473701E-1,-7.6976664E-2,-1.636963E-1,-1.2085252E-1,-1.4308786E-1,-6.102234E-2,-3.9733615E-2,-3.0160497E-3,-1.0887066E-1,-6.1122794E-3,1.9305717E-2,5.3015493E-2,-9.882281E-3,2.4465274E-2,4.5059692E-2,1.1135546E-1,5.5214904E-2,9.996222E-2,1.01365626E-1,1.6484998E-1],"split_indices":[159,1,1,1,5,801,664,404,753,371,0,0,0,4,4,0,371,1,1,0,0,1,371,1,664,1,784,0,1,1,1,0,0,0,0,0,0,0,0,0,0,0,0,0,0,0,0,0,0,0,0,0,0,0,0,0,0,0,0,0,0],"split_type":[0,0,0,0,0,0,0,0,0,0,0,0,0,0,0,0,0,0,0,0,0,0,0,0,0,0,0,0,0,0,0,0,0,0,0,0,0,0,0,0,0,0,0,0,0,0,0,0,0,0,0,0,0,0,0,0,0,0,0,0,0],"sum_hessian":[4.2678E4,7.109E3,3.5569E4,4.287E3,2.822E3,1.7959E4,1.761E4,4.39E2,3.848E3,1.7E3,1.122E3,5.959E3,1.2E4,5.059E3,1.2551E4,2.67E2,1.72E2,1.905E3,1.943E3,5.35E2,1.165E3,8.3E2,2.92E2,3.567E3,2.392E3,7.055E3,4.945E3,3.354E3,1.705E3,8.366E3,4.185E3,1.71E2,1E0,1.056E3,8.49E2,1.083E3,8.6E2,3.99E2,1.36E2,8.67E2,2.98E2,1.59E2,6.71E2,1.46E2,1.46E2,2.61E2,3.306E3,9.04E2,1.488E3,5.16E2,6.539E3,2.148E3,2.797E3,1.55E3,1.804E3,1.564E3,1.41E2,6.513E3,1.853E3,3.736E3,4.49E2],"tree_param":{"num_deleted":"0","num_feature":"924","num_nodes":"61","size_leaf_vector":"1"}},{"base_weights":[-7.1073445E-3,8.3278084E-1,-4.166501E0,-2.9716313E-1,2.0944264E0,-6.048693E0,-1.406199E0,-1.0257738E0,6.747765E-1,1.316038E0,2.9992967E0,-1.0270182E1,-5.5554543E0,-1.4344046E-1,-3.317214E0,-1.8157681E0,-1.4705445E-1,-2.784155E-1,1.3731914E0,1.8298085E0,4.799104E-1,2.6107593E0,4.1349897E0,-9.286618E0,-3.4767872E-1,-6.748118E0,-4.348444E0,8.555355E-1,-6.4740103E-1,-2.7829726E0,-4.7095766E0,-1.2803604E-1,-4.8594445E-2,-9.873156E-2,2.9998668E-3,8.500637E-3,-2.7839256E-2,3.1002846E-2,6.0653705E-2,3.5630103E-2,7.4218355E-2,-3.7233904E-4,3.837139E-2,6.530876E-2,1.0504994E-1,1.148987E-1,1.6772382E-1,-3.1976424E-2,-2.808434E-1,-2.2127108E-1,-1.7805508E-1,-1.5585287E-1,-9.671656E-2,3.867211E-2,-1.2651404E-2,-8.324044E-3,-5.529293E-2,-1.2203962E-1,-7.419495E-2,-1.5874223E-1,-1.1910606E-1],"categories":[],"categories_nodes":[],"categories_segments":[],"categories_sizes":[],"default_left":[0,0,0,0,0,0,0,0,0,0,0,0,0,0,0,0,0,0,0,0,0,0,0,0,0,0,0,0,0,0,0,0,0,0,0,0,0,0,0,0,0,0,0,0,0,0,0,0,0,0,0,0,0,0,0,0,0,0,0,0,0],"id":19,"left_children":[1,3,5,7,9,11,13,15,17,19,21,23,25,27,29,31,33,35,37,39,41,43,45,47,-1,49,51,53,55,57,59,-1,-1,-1,-1,-1,-1,-1,-1,-1,-1,-1,-1,-1,-1,-1,-1,-1,-1,-1,-1,-1,-1,-1,-1,-1,-1,-1,-1,-1,-1],"loss_changes":[1.484666E5,5.040975E4,3.7055914E4,1.3211142E4,1.1745875E4,8.675281E3,6.9819775E3,7.3956543E3,5.3238457E3,3.8515E3,3.3655781E3,2.9428516E2,5.385547E3,8.8050433E2,8.082324E2,2.665541E3,3.9342446E3,1.2354678E3,1.0034414E3,2.2841328E3,1.3513362E3,2.1942031E3,8.006211E2,1.1116211E2,0E0,8.4647656E2,1.7483516E3,3.276225E2,5.0792703E2,2.942666E2,6.570947E1,0E0,0E0,0E0,0E0,0E0,0E0,0E0,0E0,0E0,0E0,0E0,0E0,0E0,0E0,0E0,0E0,0E0,0E0,0E0,0E0,0E0,0E0,0E0,0E0,0E0,0E0,0E0,0E0,0E0,0E0],"parents":[2147483647,0,0,1,1,2,2,3,3,4,4,5,5,6,6,7,7,8,8,9,9,10,10,11,11,12,12,13,13,14,14,15,15,16,16,17,17,18,18,19,19,20,20,21,21,22,22,23,23,25,25,26,26,27,27,28,28,29,29,30,30],"right_children":[2,4,6,8,10,12,14,16,18,20,22,24,26,28,30,32,34,36,38,40,42,44,46,48,-1,50,52,54,56,58,60,-1,-1,-1,-1,-1,-1,-1,-1,-1,-1,-1,-1,-1,-1,-1,-1,-1,-1,-1,-1,-1,-1,-1,-1,-1,-1,-1,-1,-1,-1],"split_conditions":[4.15E-1,2.2450765E-3,3.123177E-1,3.5527274E-1,2.6620902E-2,-1.1605272E0,6.600876E-1,2.6179021E-2,4.1202087E1,9.505E1,1.3200537E0,2.555E-1,3.7567544E-1,1.825E-1,1.7674373E-1,-1.7806726E0,-1.7806726E0,9.522E1,4.076269E-2,-2.5350254E-2,2.2156781E-1,3.0387384E-1,8.9085984E-1,1.3560306E-1,-3.4767872E-1,-4.6286386E-1,-4.6286386E-1,1.7674373E-1,1.7674373E-1,6.999085E-1,2.032686E-1,-1.2803604E-1,-4.8594445E-2,-9.873156E-2,2.9998668E-3,8.500637E-3,-2.7839256E-2,3.1002846E-2,6.0653705E-2,3.5630103E-2,7.4218355E-2,-3.7233904E-4,3.837139E-2,6.530876E-2,1.0504994E-1,1.148987E-1,1.6772382E-1,-3.1976424E-2,-2.808434E-1,-2.2127108E-1,-1.7805508E-1,-1.5585287E-1,-9.671656E-2,3.867211E-2,-1.2651404E-2,-8.324044E-3,-5.529293E-2,-1.2203962E-1,-7.419495E-2,-1.5874223E-1,-1.1910606E-1],"split_indices":[569,1,1,0,664,1,491,664,921,923,1,16,391,155,0,1,1,923,664,4,4,4,0,379,0,1,1,0,0,1,379,0,0,0,0,0,0,0,0,0,0,0,0,0,0,0,0,0,0,0,0,0,0,0,0,0,0,0,0,0,0],"split_type":[0,0,0,0,0,0,0,0,0,0,0,0,0,0,0,0,0,0,0,0,0,0,0,0,0,0,0,0,0,0,0,0,0,0,0,0,0,0,0,0,0,0,0,0,0,0,0,0,0,0,0,0,0,0,0,0,0,0,0,0,0],"sum_hessian":[4.2492E4,3.5354E4,7.138E3,1.865E4,1.6704E4,4.242E3,2.896E3,1.0661E4,7.989E3,8.984E3,7.72E3,4.39E2,3.803E3,1.746E3,1.15E3,5.611E3,5.05E3,3.377E3,4.612E3,5.561E3,3.423E3,5.759E3,1.961E3,2.62E2,1.77E2,1.907E3,1.896E3,5.83E2,1.163E3,8.37E2,3.13E2,4.11E2,5.2E3,3.67E2,4.683E3,1.809E3,1.568E3,3.033E3,1.579E3,2.79E3,2.771E3,2.117E3,1.306E3,3.88E3,1.879E3,1.629E3,3.32E2,3E0,2.59E2,1.065E3,8.42E2,1.076E3,8.2E2,4.37E2,1.46E2,8.92E2,2.71E2,1.56E2,6.81E2,1.66E2,1.47E2],"tree_param":{"num_deleted":"0","num_feature":"924","num_nodes":"61","size_leaf_vector":"1"}},{"base_weights":[-6.7911036E-3,8.170911E-1,-4.023231E0,-5.881886E-1,1.7748638E0,-5.784744E0,-1.3594638E0,-2.9701753E0,-1.6323191E-1,9.027926E-1,2.505873E0,-9.979621E0,-5.3073287E0,-1.7203166E-1,-3.1872778E0,-3.6540236E0,-1.5747876E0,-1.5948709E0,3.414929E-1,2.1714512E-1,1.5004907E0,1.7257421E0,3.1713412E0,-3.3187568E-1,-8.746695E0,-6.5653605E0,-4.1166015E0,-6.536476E-1,8.057698E-1,-2.5564735E0,-3.7875698E0,-1.3406599E-1,-9.799689E-2,-6.141902E-2,-2.2208568E-2,-6.339079E-2,-3.496114E-2,-7.024835E-3,2.6837116E-2,-1.2623743E-2,2.080091E-2,1.9945925E-2,5.9906196E-2,4.0677406E-2,6.4757764E-2,7.306459E-2,1.0894585E-1,-5.6527507E-2,-2.6628023E-1,-2.1492048E-1,-1.7366353E-1,-1.4797463E-1,-9.218313E-2,-1.554609E-2,-8.5241355E-2,-2.0489246E-2,3.1715605E-2,-9.353931E-2,-6.540999E-2,-1.0868673E-1,-1.9056652E-1],"categories":[],"categories_nodes":[],"categories_segments":[],"categories_sizes":[],"default_left":[0,0,0,0,0,0,0,0,0,0,0,0,0,0,0,0,0,0,0,0,0,0,0,0,0,0,0,0,0,0,0,0,0,0,0,0,0,0,0,0,0,0,0,0,0,0,0,0,0,0,0,0,0,0,0,0,0,0,0,0,0],"id":20,"left_children":[1,3,5,7,9,11,13,15,17,19,21,23,25,27,29,31,33,35,37,39,41,43,45,-1,47,49,51,53,55,57,59,-1,-1,-1,-1,-1,-1,-1,-1,-1,-1,-1,-1,-1,-1,-1,-1,-1,-1,-1,-1,-1,-1,-1,-1,-1,-1,-1,-1,-1,-1],"loss_changes":[1.4098273E5,4.758458E4,3.39911E4,1.4493023E4,1.3387891E4,8.587984E3,6.261297E3,2.041582E3,8.792913E3,3.9250942E3,5.9103516E3,3.3851562E2,5.7904375E3,8.2706995E2,3.9214648E2,4.0602148E2,2.7172302E2,6.9116016E2,2.8652852E3,1.3599827E3,2.113916E3,8.272256E2,2.0521094E3,0E0,1.2772656E2,7.6291406E2,1.6676992E3,3.3633337E2,2.189097E2,8.941626E1,1.673164E2,0E0,0E0,0E0,0E0,0E0,0E0,0E0,0E0,0E0,0E0,0E0,0E0,0E0,0E0,0E0,0E0,0E0,0E0,0E0,0E0,0E0,0E0,0E0,0E0,0E0,0E0,0E0,0E0,0E0,0E0],"parents":[2147483647,0,0,1,1,2,2,3,3,4,4,5,5,6,6,7,7,8,8,9,9,10,10,11,11,12,12,13,13,14,14,15,15,16,16,17,17,18,18,19,19,20,20,21,21,22,22,24,24,25,25,26,26,27,27,28,28,29,29,30,30],"right_children":[2,4,6,8,10,12,14,16,18,20,22,24,26,28,30,32,34,36,38,40,42,44,46,-1,48,50,52,54,56,58,60,-1,-1,-1,-1,-1,-1,-1,-1,-1,-1,-1,-1,-1,-1,-1,-1,-1,-1,-1,-1,-1,-1,-1,-1,-1,-1,-1,-1,-1,-1],"split_conditions":[5.2342064E-5,-3.0782756E-1,3.123177E-1,2.5264558E-1,2.4474172E-2,-1.1605272E0,2.555E-1,-1.005491E0,1.7534254E-2,7.7742666E-1,7.7742666E-1,3.7567544E-1,3.7567544E-1,2.158959E0,4.5E-1,2.212865E-2,7.330724E1,1.7450837E-2,3.5634443E-2,2.1140136E-2,1.8495543E-2,1.5450987E2,-1.0765628E-1,-3.3187568E-1,1.0595019E-1,-4.6286386E-1,-4.6286386E-1,1.940199E0,6.999085E-1,1.0099812E0,1.940199E0,-1.3406599E-1,-9.799689E-2,-6.141902E-2,-2.2208568E-2,-6.339079E-2,-3.496114E-2,-7.024835E-3,2.6837116E-2,-1.2623743E-2,2.080091E-2,1.9945925E-2,5.9906196E-2,4.0677406E-2,6.4757764E-2,7.306459E-2,1.0894585E-1,-5.6527507E-2,-2.6628023E-1,-2.1492048E-1,-1.7366353E-1,-1.4797463E-1,-9.218313E-2,-1.554609E-2,-8.5241355E-2,-2.0489246E-2,3.1715605E-2,-9.353931E-2,-6.540999E-2,-1.0868673E-1,-1.9056652E-1],"split_indices":[361,1,1,3,664,1,16,1,754,1,1,392,392,144,8,664,771,664,784,784,664,741,4,0,732,1,1,1,1,1,1,0,0,0,0,0,0,0,0,0,0,0,0,0,0,0,0,0,0,0,0,0,0,0,0,0,0,0,0,0,0],"split_type":[0,0,0,0,0,0,0,0,0,0,0,0,0,0,0,0,0,0,0,0,0,0,0,0,0,0,0,0,0,0,0,0,0,0,0,0,0,0,0,0,0,0,0,0,0,0,0,0,0,0,0,0,0,0,0,0,0,0,0,0,0],"sum_hessian":[4.2598E4,3.5348E4,7.25E3,1.4326E4,2.1022E4,4.362E3,2.888E3,2.166E3,1.216E4,9.59E3,1.1432E4,4.41E2,3.921E3,1.753E3,1.135E3,1.45E3,7.16E2,3.17E3,8.99E3,4.47E3,5.12E3,5.268E3,6.164E3,2.25E2,2.16E2,1.901E3,2.02E3,1.177E3,5.76E2,5.61E2,5.74E2,4.58E2,9.92E2,4.53E2,2.63E2,1.43E3,1.74E3,4.403E3,4.587E3,1.908E3,2.562E3,1.912E3,3.208E3,2.849E3,2.419E3,2.379E3,3.785E3,5E0,2.11E2,1.062E3,8.39E2,1.128E3,8.92E2,1.112E3,6.5E1,8.1E1,4.95E2,2.16E2,3.45E2,5.45E2,2.9E1],"tree_param":{"num_deleted":"0","num_feature":"924","num_nodes":"61","size_leaf_vector":"1"}},{"base_weights":[4.7569047E-3,7.534362E-1,-4.2280846E0,-2.9142747E0,9.903016E-1,-5.6292634E0,-2.364682E0,-3.552083E0,-2.1109219E0,1.6348053E0,-1.0396892E-1,-7.75353E0,-4.90217E0,-1.3438718E0,-3.6688015E0,-2.964195E0,-4.185472E0,-3.2686934E0,-1.4984018E0,1.2374424E0,2.193916E0,5.42695E-1,-5.955669E-1,-3.3977988E-1,-7.1325927E0,-3.917075E0,-6.096008E0,-2.1363237E0,-2.7067208E-1,-4.3394246E0,-2.624405E0,-1.04213744E-1,-8.045381E-2,-1.4187303E-1,-1.1757456E-1,-1.4401507E-1,-8.358323E-2,-6.490417E-2,-2.1563359E-2,2.3363164E-2,5.0907757E-2,5.249557E-2,7.887857E-2,1.5858677E-3,2.837947E-2,-3.236168E-2,-5.543082E-3,-1.8005413E-1,-2.5290906E-1,-1.1226521E-1,-2.303281E-1,-2.5496536E-1,-1.7495781E-1,-8.023902E-2,-5.651371E-2,3.7157843E-3,-1.5890632E-2,-1.4525124E-1,-1.1368056E-1,-9.449646E-2,-6.0223058E-2],"categories":[],"categories_nodes":[],"categories_segments":[],"categories_sizes":[],"default_left":[0,0,0,0,0,0,0,0,0,0,0,0,0,0,0,0,1,1,0,0,0,0,0,0,0,0,0,0,0,0,0,0,0,0,0,0,0,0,0,0,0,0,0,0,0,0,0,0,0,0,0,0,0,0,0,0,0,0,0,0,0],"id":21,"left_children":[1,3,5,7,9,11,13,15,17,19,21,23,25,27,29,31,33,35,37,39,41,43,45,-1,47,49,51,53,55,57,59,-1,-1,-1,-1,-1,-1,-1,-1,-1,-1,-1,-1,-1,-1,-1,-1,-1,-1,-1,-1,-1,-1,-1,-1,-1,-1,-1,-1,-1,-1],"loss_changes":[1.3488934E5,3.14237E4,1.665171E4,1.0921895E3,2.3969012E4,5.522039E3,3.6360635E3,4.072744E2,6.6945996E2,4.7356055E3,4.0047397E3,1.8371797E3,3.1269219E3,1.3072827E3,8.003096E2,5.514795E1,2.0814453E1,1.9813257E2,3.226786E2,2.6262148E3,1.69425E3,1.0711439E3,1.4167229E3,0E0,1.0221211E3,8.948613E2,6.3646484E2,9.696362E1,6.8896194E1,1.3883008E2,1.2685132E2,0E0,0E0,0E0,0E0,0E0,0E0,0E0,0E0,0E0,0E0,0E0,0E0,0E0,0E0,0E0,0E0,0E0,0E0,0E0,0E0,0E0,0E0,0E0,0E0,0E0,0E0,0E0,0E0,0E0,0E0],"parents":[2147483647,0,0,1,1,2,2,3,3,4,4,5,5,6,6,7,7,8,8,9,9,10,10,11,11,12,12,13,13,14,14,15,15,16,16,17,17,18,18,19,19,20,20,21,21,22,22,24,24,25,25,26,26,27,27,28,28,29,29,30,30],"right_children":[2,4,6,8,10,12,14,16,18,20,22,24,26,28,30,32,34,36,38,40,42,44,46,-1,48,50,52,54,56,58,60,-1,-1,-1,-1,-1,-1,-1,-1,-1,-1,-1,-1,-1,-1,-1,-1,-1,-1,-1,-1,-1,-1,-1,-1,-1,-1,-1,-1,-1,-1],"split_conditions":[3.6179098E-1,2.5264558E-1,3.1870362E-1,3.0387384E-1,9.246E1,-1.0819728E0,2.555E-1,4.226707E-5,-1.392916E0,3.5164084E-2,9.531E1,-1.392916E0,2.555E-1,1.0318785E0,1.0318785E0,-1.392916E0,2.3089603E1,2.9619217E-3,5.9687557E1,-1.0765628E-1,-1.0765628E-1,-1.899623E-1,-1.899623E-1,-3.3977988E-1,2.555E-1,1.7606865E-1,2.5264558E-1,3.6719897E-1,1.0323887E0,5.263158E-2,5.263158E-2,-1.04213744E-1,-8.045381E-2,-1.4187303E-1,-1.1757456E-1,-1.4401507E-1,-8.358323E-2,-6.490417E-2,-2.1563359E-2,2.3363164E-2,5.0907757E-2,5.249557E-2,7.887857E-2,1.5858677E-3,2.837947E-2,-3.236168E-2,-5.543082E-3,-1.8005413E-1,-2.5290906E-1,-1.1226521E-1,-2.303281E-1,-2.5496536E-1,-1.7495781E-1,-8.023902E-2,-5.651371E-2,3.7157843E-3,-1.5890632E-2,-1.4525124E-1,-1.1368056E-1,-9.449646E-2,-6.0223058E-2],"split_indices":[759,3,2,4,923,2,16,427,2,694,923,2,16,2,2,2,921,904,771,4,4,4,4,0,16,2,3,2,380,745,745,0,0,0,0,0,0,0,0,0,0,0,0,0,0,0,0,0,0,0,0,0,0,0,0,0,0,0,0,0,0],"split_type":[0,0,0,0,0,0,0,0,0,0,0,0,0,0,0,0,0,0,0,0,0,0,0,0,0,0,0,0,0,0,0,0,0,0,0,0,0,0,0,0,0,0,0,0,0,0,0,0,0,0,0,0,0,0,0,0,0,0,0,0,0],"sum_hessian":[4.2564E4,3.6169E4,6.395E3,2.192E3,3.3977E4,3.647E3,2.748E3,1.216E3,9.76E2,2.1384E4,1.2593E4,9.24E2,2.723E3,1.545E3,1.203E3,6.39E2,5.77E2,3.33E2,6.43E2,1.2507E4,8.877E3,5.436E3,7.157E3,1.31E2,7.93E2,1.498E3,1.225E3,8.86E2,6.59E2,7.27E2,4.76E2,2.16E2,4.23E2,1.75E2,4.02E2,7.4E1,2.59E2,3.43E2,3E2,6.265E3,6.242E3,4.403E3,4.474E3,2.459E3,2.977E3,3.284E3,3.873E3,4.31E2,3.62E2,1.436E3,6.2E1,1.14E2,1.111E3,2.73E2,6.13E2,2.57E2,4.02E2,3.69E2,3.58E2,2.5E2,2.26E2],"tree_param":{"num_deleted":"0","num_feature":"924","num_nodes":"61","size_leaf_vector":"1"}},{"base_weights":[6.60017E-3,-3.8550024E0,7.6554215E-1,-5.234024E0,-2.0516677E0,6.921631E-2,1.6247265E0,-4.2381587E0,-6.71746E0,-1.0811602E0,-3.521657E0,-3.9835768E0,1.5815516E-1,-2.9132714E0,1.7274302E0,-6.1647353E0,-3.5666249E0,-8.814769E0,-5.935769E0,-4.3901277E-1,-2.810367E0,-2.9236867E0,-5.1358137E0,-4.5845246E0,-3.6454113E0,-7.0410573E-1,5.721697E-1,-0E0,-2.941789E0,1.2982147E0,2.241119E0,-2.8480554E-1,-1.6642512E-1,-1.0234323E-1,-2.1749629E-1,-3.6644325E-1,-2.4514194E-1,-1.6519801E-1,-2.0842105E-1,-1.0277567E-1,1.7215004E-3,-7.306968E-2,-1.3361879E-1,-1.3550302E-1,-7.6680586E-2,-1.4335114E-1,-1.929671E-1,-1.3839494E-1,-0E0,-1.1024778E-1,-0E0,-3.2223236E-2,5.6546587E-3,7.2134566E-3,4.104409E-2,-9.79513E-4,-8.9251965E-2,1.2245044E-2,6.840792E-2,5.7356667E-2,7.968077E-2],"categories":[],"categories_nodes":[],"categories_segments":[],"categories_sizes":[],"default_left":[0,0,0,0,0,0,0,0,0,0,0,0,0,0,0,0,0,0,0,0,0,0,0,0,0,0,0,0,0,0,0,0,0,0,0,0,0,0,0,0,0,0,0,0,0,0,0,0,0,0,0,0,0,0,0,0,0,0,0,0,0],"id":22,"left_children":[1,3,5,7,9,11,13,15,17,19,21,23,25,27,29,31,33,35,37,39,41,43,45,47,49,51,53,-1,55,57,59,-1,-1,-1,-1,-1,-1,-1,-1,-1,-1,-1,-1,-1,-1,-1,-1,-1,-1,-1,-1,-1,-1,-1,-1,-1,-1,-1,-1,-1,-1],"loss_changes":[1.249191E5,1.7367023E4,2.130874E4,5.7676953E3,4.3126953E3,7.084176E3,7.4384453E3,3.0046875E3,2.4545547E3,2.0242683E3,1.1098428E3,2.7643555E1,6.876724E3,3.297876E1,3.4219922E3,1.1049238E3,9.3024805E2,6.710781E2,3.9146875E2,1.9987422E3,2.6249146E2,4.7464258E2,5.411035E1,1.5861328E1,2.0629883E1,2.0662073E3,3.4315112E3,0E0,2.4664795E1,7.423163E3,9.4504297E2,0E0,0E0,0E0,0E0,0E0,0E0,0E0,0E0,0E0,0E0,0E0,0E0,0E0,0E0,0E0,0E0,0E0,0E0,0E0,0E0,0E0,0E0,0E0,0E0,0E0,0E0,0E0,0E0,0E0,0E0],"parents":[2147483647,0,0,1,1,2,2,3,3,4,4,5,5,6,6,7,7,8,8,9,9,10,10,11,11,12,12,13,13,14,14,15,15,16,16,17,17,18,18,19,19,20,20,21,21,22,22,23,23,24,24,25,25,26,26,28,28,29,29,30,30],"right_children":[2,4,6,8,10,12,14,16,18,20,22,24,26,28,30,32,34,36,38,40,42,44,46,48,50,52,54,-1,56,58,60,-1,-1,-1,-1,-1,-1,-1,-1,-1,-1,-1,-1,-1,-1,-1,-1,-1,-1,-1,-1,-1,-1,-1,-1,-1,-1,-1,-1,-1,-1],"split_conditions":[2.3051637E4,3.1870362E-1,2.7039152E-2,8.205E-1,8.205E-1,-1.392916E0,-1.392916E0,-1.0819728E0,-1.0819728E0,6.230663E-1,6.230663E-1,2.6412138E1,1.8597176E-2,4.4444445E-1,8.747922E-2,-3.5884333E-1,1.962034E0,-3.5884333E-1,4.4453725E-1,-1.7870755E0,1.0693889E0,-1.340753E0,1.0693889E0,2.2545455E0,5.9589267E-1,7.123308E-1,7.123308E-1,-0E0,1.625E-1,6.0397357E-1,4.8559662E-2,-2.8480554E-1,-1.6642512E-1,-1.0234323E-1,-2.1749629E-1,-3.6644325E-1,-2.4514194E-1,-1.6519801E-1,-2.0842105E-1,-1.0277567E-1,1.7215004E-3,-7.306968E-2,-1.3361879E-1,-1.3550302E-1,-7.6680586E-2,-1.4335114E-1,-1.929671E-1,-1.3839494E-1,-0E0,-1.1024778E-1,-0E0,-3.2223236E-2,5.6546587E-3,7.2134566E-3,4.104409E-2,-9.79513E-4,-8.9251965E-2,1.2245044E-2,6.840792E-2,5.7356667E-2,7.968077E-2],"split_indices":[362,2,664,5,5,2,2,2,2,0,0,921,664,396,0,0,0,0,0,0,0,0,0,421,698,0,0,0,154,2,784,0,0,0,0,0,0,0,0,0,0,0,0,0,0,0,0,0,0,0,0,0,0,0,0,0,0,0,0,0,0],"split_type":[0,0,0,0,0,0,0,0,0,0,0,0,0,0,0,0,0,0,0,0,0,0,0,0,0,0,0,0,0,0,0,0,0,0,0,0,0,0,0,0,0,0,0,0,0,0,0,0,0,0,0,0,0,0,0,0,0,0,0,0,0],"sum_hessian":[4.2623E4,6.999E3,3.5624E4,3.963E3,3.036E3,1.968E4,1.5944E4,2.377E3,1.586E3,1.832E3,1.204E3,4.2E2,1.926E4,3.51E2,1.5593E4,6.09E2,1.768E3,4.24E2,1.162E3,1.339E3,4.93E2,8.84E2,3.2E2,1.39E2,2.81E2,6.245E3,1.3015E4,3E0,3.48E2,8.502E3,7.091E3,9E1,5.19E2,1.701E3,6.7E1,6.1E1,3.63E2,8.27E2,3.35E2,1.9E2,1.149E3,4.07E2,8.6E1,1.6E2,7.24E2,2.6E2,6E1,1.38E2,1E0,2.78E2,3E0,4.417E3,1.828E3,9.191E3,3.824E3,5E0,3.43E2,4.463E3,4.039E3,3.964E3,3.127E3],"tree_param":{"num_deleted":"0","num_feature":"924","num_nodes":"61","size_leaf_vector":"1"}},{"base_weights":[-5.353231E-3,-3.9658875E0,7.001843E-1,-5.586733E0,-1.5240095E0,-4.260744E-1,1.850667E0,-9.467834E0,-5.146293E0,-4.3517908E-1,-2.8943813E0,-2.8007307E0,-1.0143565E-1,1.0310986E0,2.541714E0,-3.228955E-1,-8.746324E0,-4.2678833E0,-6.2455206E0,-3.1012595E-1,-2.498634E0,-3.467057E0,-2.2989748E0,-3.445639E0,-1.4874542E0,3.9196834E-1,-1.5649604E0,3.8135016E-1,1.589245E0,2.1683388E0,3.6736257E0,-2.6318264E-1,-0E0,-1.5224937E-1,-9.761489E-2,-2.0249765E-1,-1.6718102E-1,-2.9856192E-2,5.6572813E-3,-8.622605E-2,-4.6094514E-2,-1.5198594E-1,-9.694768E-2,-1.1089751E-1,-6.287058E-2,-1.2487195E-1,-8.742464E-2,-6.358574E-2,-2.4301955E-2,-4.6792845E-3,2.8117962E-2,-6.004667E-2,-2.371523E-2,2.6160972E-2,-4.944925E-3,6.501129E-2,3.0171143E-2,5.4004416E-2,9.3457796E-2,1.0088435E-1,1.5220587E-1],"categories":[],"categories_nodes":[],"categories_segments":[],"categories_sizes":[],"default_left":[0,0,0,0,0,0,1,0,0,0,0,0,0,0,0,0,0,0,0,0,0,0,0,0,0,0,0,1,0,0,0,0,0,0,0,0,0,0,0,0,0,0,0,0,0,0,0,0,0,0,0,0,0,0,0,0,0,0,0,0,0],"id":23,"left_children":[1,3,5,7,9,11,13,15,17,19,21,23,25,27,29,-1,31,33,35,37,39,41,43,45,47,49,51,53,55,57,59,-1,-1,-1,-1,-1,-1,-1,-1,-1,-1,-1,-1,-1,-1,-1,-1,-1,-1,-1,-1,-1,-1,-1,-1,-1,-1,-1,-1,-1,-1],"loss_changes":[1.1832625E5,2.5304125E4,4.6573492E4,6.4347344E3,3.8042896E3,1.399114E4,1.0053926E4,1.1675781E2,3.256039E3,3.5876526E2,3.5240332E2,1.8238262E3,1.1544047E4,2.9445225E3,4.0419453E3,0E0,4.4359375E1,1.5223906E3,4.07375E2,4.6436572E2,6.843811E0,1.5699463E2,1.2708789E2,5.1107227E2,2.9776343E2,3.5735054E3,1.3514316E3,1.01170197E3,1.4612354E3,2.5045234E3,9.791758E2,0E0,0E0,0E0,0E0,0E0,0E0,0E0,0E0,0E0,0E0,0E0,0E0,0E0,0E0,0E0,0E0,0E0,0E0,0E0,0E0,0E0,0E0,0E0,0E0,0E0,0E0,0E0,0E0,0E0,0E0],"parents":[2147483647,0,0,1,1,2,2,3,3,4,4,5,5,6,6,7,7,8,8,9,9,10,10,11,11,12,12,13,13,14,14,16,16,17,17,18,18,19,19,20,20,21,21,22,22,23,23,24,24,25,25,26,26,27,27,28,28,29,29,30,30],"right_children":[2,4,6,8,10,12,14,16,18,20,22,24,26,28,30,-1,32,34,36,38,40,42,44,46,48,50,52,54,56,58,60,-1,-1,-1,-1,-1,-1,-1,-1,-1,-1,-1,-1,-1,-1,-1,-1,-1,-1,-1,-1,-1,-1,-1,-1,-1,-1,-1,-1,-1,-1],"split_conditions":[1.0363822E3,3.123177E-1,-7.527308E-2,-1.1605272E0,2.555E-1,2.5264558E-1,4.359282E1,-1.7806726E0,3.5043478E-1,1.940199E0,1.04608545E-2,-1.005491E0,9.446E1,-1.0765628E-1,1.3200537E0,-3.228955E-1,9.524554E3,-4.6286386E-1,-4.6286386E-1,1.0099812E0,1.1592464E-2,-3.944712E-1,-3.944712E-1,9.529888E3,1.9405739E3,3.501459E-2,-6.9541836E-1,9.471E1,9.488E1,3.8617986E-1,1.940199E0,-2.6318264E-1,-0E0,-1.5224937E-1,-9.761489E-2,-2.0249765E-1,-1.6718102E-1,-2.9856192E-2,5.6572813E-3,-8.622605E-2,-4.6094514E-2,-1.5198594E-1,-9.694768E-2,-1.1089751E-1,-6.287058E-2,-1.2487195E-1,-8.742464E-2,-6.358574E-2,-2.4301955E-2,-4.6792845E-3,2.8117962E-2,-6.004667E-2,-2.371523E-2,2.6160972E-2,-4.944925E-3,6.501129E-2,3.0171143E-2,5.4004416E-2,9.3457796E-2,1.0088435E-1,1.5220587E-1],"split_indices":[209,1,1,1,16,3,921,1,530,1,724,1,923,4,1,0,363,1,1,1,724,2,2,173,316,784,1,923,923,4,1,0,0,0,0,0,0,0,0,0,0,0,0,0,0,0,0,0,0,0,0,0,0,0,0,0,0,0,0,0,0],"split_type":[0,0,0,0,0,0,0,0,0,0,0,0,0,0,0,0,0,0,0,0,0,0,0,0,0,0,0,0,0,0,0,0,0,0,0,0,0,0,0,0,0,0,0,0,0,0,0,0,0,0,0,0,0,0,0,0,0,0,0,0,0],"sum_hessian":[4.2338E4,6.401E3,3.5937E4,3.845E3,2.556E3,1.8159E4,1.7778E4,3.87E2,3.458E3,1.427E3,1.129E3,2.181E3,1.5978E4,8.137E3,9.641E3,1.27E2,2.6E2,1.929E3,1.529E3,1.349E3,7.8E1,5.68E2,5.61E2,1.459E3,7.22E2,1.1949E4,4.029E3,3.764E3,4.373E3,7.256E3,2.385E3,2.59E2,1E0,1.068E3,8.61E2,8.61E2,6.68E2,5.7E2,7.79E2,5.1E1,2.7E1,6.6E1,5.02E2,6.5E1,4.96E2,6.13E2,8.46E2,3.69E2,3.53E2,5.958E3,5.991E3,2.572E3,1.457E3,1.985E3,1.779E3,2.192E3,2.181E3,5.231E3,2.025E3,1.959E3,4.26E2],"tree_param":{"num_deleted":"0","num_feature":"924","num_nodes":"61","size_leaf_vector":"1"}},{"base_weights":[1.183367E-2,-3.6003885E0,7.307887E-1,-4.907822E0,-1.8934982E0,1.6620232E-2,1.4902555E0,-6.8960996E0,-4.220787E0,-3.3338177E0,-9.820749E-1,-4.7886997E-1,6.3713765E-1,-2.8069735E0,1.5797929E0,-1.0181721E1,-6.3149877E0,-5.3252516E0,-3.1079192E0,-2.776584E0,-4.8220687E0,-3.7564078E-1,-2.6399193E0,-1.3256422E0,5.3696233E-1,-8.746101E-2,1.0279477E0,-2.1832821E0,-3.078526E0,1.168699E0,2.0785825E0,-3.5009122E-1,-2.6502165E-1,-1.5838024E-1,-2.4936698E-1,-1.55468E-1,-2.5904787E-1,-8.847787E-2,-1.9703795E-1,-1.2915102E-1,-7.266284E-2,-1.3670258E-1,-1.8037513E-1,-7.9822354E-2,4.9229967E-3,-6.852305E-2,-1.2393073E-1,-1.1221487E-1,-3.4547992E-2,-5.8785688E-2,2.286384E-2,-1.6899202E-2,5.3699324E-3,2.018449E-2,3.8414057E-2,-6.6930905E-2,-0E0,-9.388037E-2,-2.582022E-3,9.756022E-3,6.268942E-2,5.2866492E-2,7.607935E-2],"categories":[],"categories_nodes":[],"categories_segments":[],"categories_sizes":[],"default_left":[0,0,0,0,0,0,0,0,0,0,0,0,0,0,0,0,0,0,0,0,0,0,0,0,0,0,0,0,0,0,0,0,0,0,0,0,0,0,0,0,0,0,0,0,0,0,0,0,0,0,0,0,0,0,0,0,0,0,0,0,0,0,0],"id":24,"left_children":[1,3,5,7,9,11,13,15,17,19,21,23,25,27,29,31,33,35,37,39,41,43,45,47,49,51,53,55,57,59,61,-1,-1,-1,-1,-1,-1,-1,-1,-1,-1,-1,-1,-1,-1,-1,-1,-1,-1,-1,-1,-1,-1,-1,-1,-1,-1,-1,-1,-1,-1,-1,-1],"loss_changes":[1.1080134E5,1.5765531E4,1.9296822E4,5.3834375E3,4.0184941E3,5.6411357E3,6.640035E3,1.7789609E3,3.6105312E3,9.3729785E2,1.8871151E3,8.775892E3,2.3103557E3,3.0388672E1,3.449504E3,3.3103516E1,1.6854805E3,5.760586E2,7.522969E2,4.3143066E2,1.4566895E1,1.7178055E3,2.2928638E2,2.3151855E3,2.605396E3,3.6322256E2,4.6735254E2,1.4705627E1,2.585669E1,7.1917275E3,1.081832E3,0E0,0E0,0E0,0E0,0E0,0E0,0E0,0E0,0E0,0E0,0E0,0E0,0E0,0E0,0E0,0E0,0E0,0E0,0E0,0E0,0E0,0E0,0E0,0E0,0E0,0E0,0E0,0E0,0E0,0E0,0E0,0E0],"parents":[2147483647,0,0,1,1,2,2,3,3,4,4,5,5,6,6,7,7,8,8,9,9,10,10,11,11,12,12,13,13,14,14,15,15,16,16,17,17,18,18,19,19,20,20,21,21,22,22,23,23,24,24,25,25,26,26,27,27,28,28,29,29,30,30],"right_children":[2,4,6,8,10,12,14,16,18,20,22,24,26,28,30,32,34,36,38,40,42,44,46,48,50,52,54,56,58,60,62,-1,-1,-1,-1,-1,-1,-1,-1,-1,-1,-1,-1,-1,-1,-1,-1,-1,-1,-1,-1,-1,-1,-1,-1,-1,-1,-1,-1,-1,-1,-1,-1],"split_conditions":[2.3051637E4,3.1870362E-1,2.5935765E-2,-1.0819728E0,7.476852E1,8.747922E-2,-1.392916E0,-3.5884333E-1,3.4957594E-1,6.230663E-1,6.230663E-1,6.0397357E-1,1.8597176E-2,4.2185564E0,8.747922E-2,3.2695743E-1,1.4264469E0,1.962034E0,1.962034E0,-1.340753E0,1.0693889E0,-1.340753E0,1.0693889E0,-1.392916E0,-1.9656045E0,7.123308E-1,-5.3710616E-1,1.4386125E0,2.3029836E-1,6.0397357E-1,4.357508E-2,-3.5009122E-1,-2.6502165E-1,-1.5838024E-1,-2.4936698E-1,-1.55468E-1,-2.5904787E-1,-8.847787E-2,-1.9703795E-1,-1.2915102E-1,-7.266284E-2,-1.3670258E-1,-1.8037513E-1,-7.9822354E-2,4.9229967E-3,-6.852305E-2,-1.2393073E-1,-1.1221487E-1,-3.4547992E-2,-5.8785688E-2,2.286384E-2,-1.6899202E-2,5.3699324E-3,2.018449E-2,3.8414057E-2,-6.6930905E-2,-0E0,-9.388037E-2,-2.582022E-3,9.756022E-3,6.268942E-2,5.2866492E-2,7.607935E-2],"split_indices":[362,2,664,2,354,0,2,0,378,0,0,2,664,73,0,356,0,0,0,0,0,0,0,2,0,0,2,452,550,2,664,0,0,0,0,0,0,0,0,0,0,0,0,0,0,0,0,0,0,0,0,0,0,0,0,0,0,0,0,0,0,0,0],"split_type":[0,0,0,0,0,0,0,0,0,0,0,0,0,0,0,0,0,0,0,0,0,0,0,0,0,0,0,0,0,0,0,0,0,0,0,0,0,0,0,0,0,0,0,0,0,0,0,0,0,0,0,0,0,0,0,0,0,0,0,0,0,0,0],"sum_hessian":[4.2664E4,7.08E3,3.5584E4,4.006E3,3.074E3,1.8342E4,1.7242E4,1.023E3,2.983E3,1.188E3,1.886E3,1.0196E4,8.146E3,3.5E2,1.6892E4,1.48E2,8.75E2,1.492E3,1.491E3,8.7E2,3.18E2,1.384E3,5.02E2,5.562E3,4.634E3,2.852E3,5.294E3,1.15E2,2.35E2,9.267E3,7.625E3,6.2E1,8.6E1,5.82E2,2.93E2,1.436E3,5.6E1,1.43E3,6.1E1,1.58E2,7.12E2,2.7E2,4.8E1,2.64E2,1.12E3,4.11E2,9.1E1,3.7E2,5.192E3,3.81E2,4.253E3,1.027E3,1.825E3,2.208E3,3.086E3,1.13E2,2E0,2.3E2,5E0,4.84E3,4.427E3,4.517E3,3.108E3],"tree_param":{"num_deleted":"0","num_feature":"924","num_nodes":"63","size_leaf_vector":"1"}},{"base_weights":[-6.103385E-3,6.954842E-1,-3.5158522E0,-3.1757578E-1,1.8263382E0,-5.1059265E0,-1.1005965E0,-2.6281655E0,-1.7731339E-2,2.3802323E0,8.641103E-1,-8.7687645E0,-4.6684914E0,-5.5365518E-2,-2.7148573E0,-3.2264235E0,-1.4201024E0,-1.0453731E0,5.070447E-1,2.0231247E0,3.4275887E0,5.7236016E-1,2.203806E0,-2.371265E-1,-2.9616892E-1,-5.683889E0,-3.6828032E0,8.864373E-1,-5.120525E-1,-2.2685745E0,-3.9415367E0,-1.0815326E-1,-7.709904E-2,-7.38289E-2,-3.173165E-2,-4.28497E-2,-5.568302E-3,3.2881286E-4,3.1262144E-2,4.9515028E-2,8.858907E-2,9.3805164E-2,1.4426728E-1,5.583698E-3,4.0520977E-2,5.2812364E-2,1.0069414E-1,-1.6365205E-1,-2.2748278E-1,-1.3356808E-1,-7.993899E-2,3.81363E-2,-8.020718E-3,-5.8952994E-3,-4.4305783E-2,-1.0354647E-1,-5.846741E-2,-9.900808E-2,-1.3358983E-1],"categories":[],"categories_nodes":[],"categories_segments":[],"categories_sizes":[],"default_left":[0,0,0,0,0,0,0,0,0,0,0,0,0,0,0,0,0,0,0,0,0,0,0,0,0,0,0,0,0,0,0,0,0,0,0,0,0,0,0,0,0,0,0,0,0,0,0,0,0,0,0,0,0,0,0,0,0,0,0],"id":25,"left_children":[1,3,5,7,9,11,13,15,17,19,21,23,25,27,29,31,33,35,37,39,41,43,45,-1,-1,47,49,51,53,55,57,-1,-1,-1,-1,-1,-1,-1,-1,-1,-1,-1,-1,-1,-1,-1,-1,-1,-1,-1,-1,-1,-1,-1,-1,-1,-1,-1,-1],"loss_changes":[1.04571625E5,4.0548133E4,2.7141234E4,1.2924794E4,8.899586E3,6.7114297E3,4.736007E3,1.5257148E3,8.914846E3,3.9384922E3,2.3792358E3,2.2183984E2,3.748336E3,7.352712E2,5.678672E2,3.1842773E2,2.5392749E2,1.8347866E3,2.9002292E3,2.7205781E3,1.0648789E3,1.5058192E3,5.304253E2,0E0,0E0,6.9241016E2,1.4771621E3,2.5097076E2,3.460249E2,2.7891602E2,4.2462402E1,0E0,0E0,0E0,0E0,0E0,0E0,0E0,0E0,0E0,0E0,0E0,0E0,0E0,0E0,0E0,0E0,0E0,0E0,0E0,0E0,0E0,0E0,0E0,0E0,0E0,0E0,0E0,0E0],"parents":[2147483647,0,0,1,1,2,2,3,3,4,4,5,5,6,6,7,7,8,8,9,9,10,10,11,11,12,12,13,13,14,14,15,15,16,16,17,17,18,18,19,19,20,20,21,21,22,22,25,25,26,26,27,27,28,28,29,29,30,30],"right_children":[2,4,6,8,10,12,14,16,18,20,22,24,26,28,30,32,34,36,38,40,42,44,46,-1,-1,48,50,52,54,56,58,-1,-1,-1,-1,-1,-1,-1,-1,-1,-1,-1,-1,-1,-1,-1,-1,-1,-1,-1,-1,-1,-1,-1,-1,-1,-1,-1,-1],"split_conditions":[3.4E-1,2.2450765E-3,3.123177E-1,2.5264558E-1,9.233E1,-1.1605272E0,8.205E-1,-3.5884333E-1,2.1474997E-2,1.3200537E0,1.3975719E0,8.205E-1,3.4957594E-1,6.7424244E-1,1.7674373E-1,2.615916E-2,2.0066585E-2,7.123308E-1,3.5527274E-1,4.684859E-1,8.9085984E-1,3.0387384E-1,6.230663E-1,-2.371265E-1,-2.9616892E-1,1.2479179E0,-4.6286386E-1,1.7674373E-1,1.7674373E-1,6.999085E-1,1.2097739E0,-1.0815326E-1,-7.709904E-2,-7.38289E-2,-3.173165E-2,-4.28497E-2,-5.568302E-3,3.2881286E-4,3.1262144E-2,4.9515028E-2,8.858907E-2,9.3805164E-2,1.4426728E-1,5.583698E-3,4.0520977E-2,5.2812364E-2,1.0069414E-1,-1.6365205E-1,-2.2748278E-1,-1.3356808E-1,-7.993899E-2,3.81363E-2,-8.020718E-3,-5.8952994E-3,-4.4305783E-2,-1.0354647E-1,-5.846741E-2,-9.900808E-2,-1.3358983E-1],"split_indices":[607,1,1,3,923,1,5,0,694,1,1,5,378,363,0,754,664,0,0,4,0,4,0,0,0,0,1,0,0,1,732,0,0,0,0,0,0,0,0,0,0,0,0,0,0,0,0,0,0,0,0,0,0,0,0,0,0,0,0],"split_type":[0,0,0,0,0,0,0,0,0,0,0,0,0,0,0,0,0,0,0,0,0,0,0,0,0,0,0,0,0,0,0,0,0,0,0,0,0,0,0,0,0,0,0,0,0,0,0,0,0,0,0,0,0,0,0,0,0,0,0],"sum_hessian":[4.246E4,3.5387E4,7.073E3,1.8665E4,1.6722E4,4.263E3,2.81E3,2.141E3,1.6524E4,1.0609E4,6.113E3,4.5E2,3.813E3,1.708E3,1.102E3,1.428E3,7.13E2,5.587E3,1.0937E4,7.918E3,2.691E3,5.024E3,1.089E3,2.63E2,1.87E2,1.872E3,1.941E3,5.55E2,1.153E3,8.14E2,2.88E2,8.97E2,5.31E2,1.79E2,5.34E2,3.862E3,1.725E3,5.679E3,5.258E3,5.659E3,2.259E3,2.217E3,4.74E2,3.362E3,1.662E3,7.92E2,2.97E2,1.679E3,1.93E2,1.1E3,8.41E2,4.18E2,1.37E2,8.73E2,2.8E2,1.67E2,6.47E2,1.37E2,1.51E2],"tree_param":{"num_deleted":"0","num_feature":"924","num_nodes":"59","size_leaf_vector":"1"}},{"base_weights":[1.161756E-3,-3.5942557E0,6.432089E-1,-4.824436E0,-2.0160756E0,1.0618545E0,-6.246327E-1,-6.625871E0,-4.199434E0,-1.1379681E0,-3.1632051E0,-2.8611786E0,1.1485704E0,-4.2806945E0,-5.432915E-1,-2.9471204E-1,-6.081226E0,-5.036156E0,-3.1508367E0,-5.9651536E-1,-2.629195E0,-2.619818E0,-4.563209E0,-3.1080532E0,-2.1325374E0,6.34645E-1,1.6062884E0,-2.015301E-1,-3.9693072E0,-1.0159965E0,-1.4673345E-1,-1.5317743E-1,-2.395754E-1,-1.4702767E-1,-2.4164645E-1,-9.032315E-2,-1.8796186E-1,-8.188281E-2,-2.5193826E-3,-6.894083E-2,-1.2379609E-1,-1.6140921E-1,-7.263101E-2,-1.2734579E-1,-1.7311355E-1,-1.065482E-1,-8.305309E-2,-0E0,-6.537797E-2,4.1959365E-3,3.16909E-2,3.6123563E-2,6.2678784E-2,-1.20843545E-1,-1.322038E-2,-4.2007558E-2,